72 200
</s> 0.0066697 -0.052659 0.068571 -0.036796 0.14755 0.08969 -0.01872 -0.065893 0.046339 0.034051 -0.10447 0.067799 -0.00081751 0.095884 -0.089285 -0.026566 0.014778 0.022607 0.0063513 -0.037188 -0.059871 0.065007 -0.028642 -0.026285 0.0042501 -0.013124 0.050323 -0.041967 -0.077384 0.096205 -0.13972 0.028288 -0.027086 -0.0026883 0.007185 0.019545 -0.054819 0.017848 -0.020137 0.022936 -0.043423 0.07486 0.035532 0.026072 0.0071216 -0.022886 -0.018053 -0.079532 0.0048288 0.032179 -0.066622 0.080467 -0.11014 -0.012454 -0.096757 -0.024263 -0.045547 0.017663 -0.0094795 0.025142 0.1205 0.027178 0.069928 0.080292 -0.065398 0.0078175 -0.05082 0.07351 0.037432 -0.028476 0.023687 -0.033632 0.071762 0.017682 0.012376 -0.055569 0.10937 0.065602 0.11412 -0.079827 0.098647 -0.017538 0.0026114 -0.015228 0.0067456 0.022695 0.017904 0.014637 -0.0091073 0.00033679 0.05735 0.067243 0.15721 -0.036657 -0.010396 -0.056785 -0.044428 0.080099 -0.027596 0.0018791 0.0066697 -0.052659 0.068571 -0.036796 0.14755 0.08969 -0.01872 -0.065893 0.046339 0.034051 -0.10447 0.067799 -0.00081751 0.095884 -0.089285 -0.026566 0.014778 0.022607 0.0063513 -0.037188 -0.059871 0.065007 -0.028642 -0.026285 0.0042501 -0.013124 0.050323 -0.041967 -0.077384 0.096205 -0.13972 0.028288 -0.027086 -0.0026883 0.007185 0.019545 -0.054819 0.017848 -0.020137 0.022936 -0.043423 0.07486 0.035532 0.026072 0.0071216 -0.022886 -0.018053 -0.079532 0.0048288 0.032179 -0.066622 0.080467 -0.11014 -0.012454 -0.096757 -0.024263 -0.045547 0.017663 -0.0094795 0.025142 0.1205 0.027178 0.069928 0.080292 -0.065398 0.0078175 -0.05082 0.07351 0.037432 -0.028476 0.023687 -0.033632 0.071762 0.017682 0.012376 -0.055569 0.10937 0.065602 0.11412 -0.079827 0.098647 -0.017538 0.0026114 -0.015228 0.0067456 0.022695 0.017904 0.014637 -0.0091073 0.00033679 0.05735 0.067243 0.15721 -0.036657 -0.010396 -0.056785 -0.044428 0.080099 -0.027596 0.0018791
ja 0.031951 -0.11204 0.14173 -0.067576 0.26533 0.16442 -0.045451 -0.12151 0.065139 0.042177 -0.19054 0.11714 -0.020012 0.15918 -0.1571 -0.045028 0.024633 0.03322 0.013578 -0.048085 -0.10793 0.10585 -0.060124 -0.0388 -0.0070029 -0.011032 0.090111 -0.068466 -0.13963 0.15702 -0.2471 0.058757 -0.033248 0.010247 0.033389 0.037004 -0.10731 0.051127 -0.036467 0.054363 -0.09932 0.12802 0.059864 0.049165 0.022789 -0.047613 -0.021591 -0.13861 0.024254 0.05336 -0.10983 0.13446 -0.18335 -0.031733 -0.18094 -0.034204 -0.090286 0.03056 -0.025892 0.039054 0.2324 0.045745 0.11714 0.13966 -0.10838 0.012579 -0.080197 0.1255 0.055075 -0.068086 0.063984 -0.064362 0.13987 0.030493 0.025972 -0.096906 0.17955 0.10314 0.21328 -0.13553 0.20131 -0.045515 -0.0091929 -0.0086557 0.024859 0.060514 0.035965 0.024645 -0.011902 0.013934 0.084683 0.1143 0.26902 -0.051748 -0.019873 -0.084475 -0.091906 0.12935 -0.041814 0.0038068 0.031951 -0.11204 0.14173 -0.067576 0.26533 0.16442 -0.045451 -0.12151 0.065139 0.042177 -0.19054 0.11714 -0.020012 0.15918 -0.1571 -0.045028 0.024633 0.03322 0.013578 -0.048085 -0.10793 0.10585 -0.060124 -0.0388 -0.0070029 -0.011032 0.090111 -0.068466 -0.13963 0.15702 -0.2471 0.058757 -0.033248 0.010247 0.033389 0.037004 -0.10731 0.051127 -0.036467 0.054363 -0.09932 0.12802 0.059864 0.049165 0.022789 -0.047613 -0.021591 -0.13861 0.024254 0.05336 -0.10983 0.13446 -0.18335 -0.031733 -0.18094 -0.034204 -0.090286 0.03056 -0.025892 0.039054 0.2324 0.045745 0.11714 0.13966 -0.10838 0.012579 -0.080197 0.1255 0.055075 -0.068086 0.063984 -0.064362 0.13987 0.030493 0.025972 -0.096906 0.17955 0.10314 0.21328 -0.13553 0.20131 -0.045515 -0.0091929 -0.0086557 0.024859 0.060514 0.035965 0.024645 -0.011902 0.013934 0.084683 0.1143 0.26902 -0.051748 -0.019873 -0.084475 -0.091906 0.12935 -0.041814 0.0038068
on 0.022445 -0.092252 0.11029 -0.048963 0.2083 0.12984 -0.03896 -0.093749 0.055111 0.040449 -0.15078 0.093542 -0.014134 0.13245 -0.12335 -0.032908 0.022797 0.024858 0.002352 -0.037691 -0.0861 0.086906 -0.052062 -0.029392 -0.0027747 -0.0097658 0.072153 -0.053948 -0.11616 0.12692 -0.19547 0.048139 -0.025212 0.0043209 0.024668 0.027347 -0.092237 0.04177 -0.022844 0.046216 -0.081045 0.097907 0.050319 0.037134 0.020736 -0.037039 -0.018902 -0.11052 0.024071 0.047072 -0.089412 0.1046 -0.14956 -0.023017 -0.14257 -0.025269 -0.06949 0.021241 -0.018697 0.029036 0.19427 0.033076 0.092805 0.11655 -0.095725 0.011583 -0.064783 0.10278 0.04074 -0.050654 0.051207 -0.050698 0.11401 0.022682 0.017891 -0.072034 0.14801 0.085805 0.17392 -0.11065 0.16029 -0.033186 -0.010309 -0.0092349 0.019142 0.045131 0.028671 0.019895 -0.0061879 0.0055754 0.067783 0.093492 0.22016 -0.037866 -0.013568 -0.07425 -0.076276 0.10406 -0.031042 0.0066636 0.022445 -0.092252 0.11029 -0.048963 0.2083 0.12984 -0.03896 -0.093749 0.055111 0.040449 -0.15078 0.093542 -0.014134 0.13245 -0.12335 -0.032908 0.022797 0.024858 0.002352 -0.037691 -0.0861 0.086906 -0.052062 -0.029392 -0.0027747 -0.0097658 0.072153 -0.053948 -0.11616 0.12692 -0.19547 0.048139 -0.025212 0.0043209 0.024668 0.027347 -0.092237 0.04177 -0.022844 0.046216 -0.081045 0.097907 0.050319 0.037134 0.020736 -0.037039 -0.018902 -0.11052 0.024071 0.047072 -0.089412 0.1046 -0.14956 -0.023017 -0.14257 -0.025269 -0.06949 0.021241 -0.018697 0.029036 0.19427 0.033076 0.092805 0.11655 -0.095725 0.011583 -0.064783 0.10278 0.04074 -0.050654 0.051207 -0.050698 0.11401 0.022682 0.017891 -0.072034 0.14801 0.085805 0.17392 -0.11065 0.16029 -0.033186 -0.010309 -0.0092349 0.019142 0.045131 0.028671 0.019895 -0.0061879 0.0055754 0.067783 0.093492 0.22016 -0.037866 -0.013568 -0.07425 -0.076276 0.10406 -0.031042 0.0066636
ISBN -0.00062828 -0.0083995 0.013734 -0.0084698 0.023081 0.015286 -0.0031745 -0.0092725 0.0077528 0.0025043 -0.016744 0.010366 -0.00061744 0.013422 -0.012209 -0.0045317 0.0021587 0.001866 2.9514e-05 -0.0037548 -0.0075228 0.0083917 -0.0053264 -0.0082803 -0.00068667 -0.00076801 0.0090325 -0.0067591 -0.0137 0.01471 -0.022872 0.0036843 -0.0054591 0.0010481 0.003293 0.0031979 -0.010392 0.0014223 -0.0031831 0.003154 -0.0076642 0.014283 0.0069003 0.00334 -0.0015135 -0.0028224 -0.0011954 -0.014215 0.0015577 0.0076314 -0.0088452 0.011191 -0.016058 -0.0038794 -0.013333 -0.002073 -0.006445 0.00014012 -0.0014996 0.0043234 0.019864 0.0024378 0.0089199 0.013908 -0.0074514 0.0034336 -0.0065741 0.0095907 0.0052201 -0.0059971 0.0054755 -0.0035622 0.011818 2.3766e-05 0.00094729 -0.0068699 0.019182 0.0095206 0.020886 -0.012364 0.016963 -0.001154 0.0024111 -0.0013517 0.0021177 0.006527 0.00087917 0.0045127 -0.0004884 0.0029968 0.0081703 0.0058345 0.024549 -0.0057235 -0.0033125 -0.0070971 -0.0061737 0.0099387 0.00029319 -0.00076541 -0.00062828 -0.0083995 0.013734 -0.0084698 0.023081 0.015286 -0.0031745 -0.0092725 0.0077528 0.0025043 -0.016744 0.010366 -0.00061744 0.013422 -0.012209 -0.0045317 0.0021587 0.001866 2.9514e-05 -0.0037548 -0.0075228 0.0083917 -0.0053264 -0.0082803 -0.00068667 -0.00076801 0.0090325 -0.0067591 -0.0137 0.01471 -0.022872 0.0036843 -0.0054591 0.0010481 0.003293 0.0031979 -0.010392 0.0014223 -0.0031831 0.003154 -0.0076642 0.014283 0.0069003 0.00334 -0.0015135 -0.0028224 -0.0011954 -0.014215 0.0015577 0.0076314 -0.0088452 0.011191 -0.016058 -0.0038794 -0.013333 -0.002073 -0.006445 0.00014012 -0.0014996 0.0043234 0.019864 0.0024378 0.0089199 0.013908 -0.0074514 0.0034336 -0.0065741 0.0095907 0.0052201 -0.0059971 0.0054755 -0.0035622 0.011818 2.3766e-05 0.00094729 -0.0068699 0.019182 0.0095206 0.020886 -0.012364 0.016963 -0.001154 0.0024111 -0.0013517 0.0021177 0.006527 0.00087917 0.0045127 -0.0004884 0.0029968 0.0081703 0.0058345 0.024549 -0.0057235 -0.0033125 -0.0070971 -0.0061737 0.0099387 0.00029319 -0.00076541
myös 0.012964 -0.056542 0.071137 -0.033639 0.13464 0.083225 -0.023205 -0.060285 0.038875 0.02731 -0.099313 0.061162 -0.010445 0.083982 -0.080493 -0.022647 0.015192 0.013755 0.0059426 -0.025449 -0.057586 0.056042 -0.034587 -0.021121 -0.0046833 -0.0059423 0.045136 -0.038797 -0.069886 0.079881 -0.12599 0.025691 -0.014894 0.0042696 0.012278 0.018505 -0.052692 0.027252 -0.014339 0.029635 -0.050328 0.062307 0.032871 0.022908 0.011905 -0.025546 -0.013175 -0.068317 0.01208 0.025212 -0.05257 0.065314 -0.094591 -0.016332 -0.088924 -0.016329 -0.043363 0.016015 -0.015563 0.018581 0.11897 0.020031 0.057082 0.068685 -0.052391 0.0073054 -0.041515 0.065364 0.026491 -0.033164 0.031571 -0.031753 0.071818 0.01759 0.012582 -0.046161 0.092337 0.054514 0.10957 -0.075304 0.099979 -0.02331 -0.0064567 -0.0055179 0.0092369 0.028451 0.018529 0.015273 -0.0059344 0.0049156 0.050217 0.060226 0.13939 -0.024804 -0.0090978 -0.042488 -0.046598 0.065886 -0.021713 0.0024955 0.012964 -0.056542 0.071137 -0.033639 0.13464 0.083225 -0.023205 -0.060285 0.038875 0.02731 -0.099313 0.061162 -0.010445 0.083982 -0.080493 -0.022647 0.015192 0.013755 0.0059426 -0.025449 -0.057586 0.056042 -0.034587 -0.021121 -0.0046833 -0.0059423 0.045136 -0.038797 -0.069886 0.079881 -0.12599 0.025691 -0.014894 0.0042696 0.012278 0.018505 -0.052692 0.027252 -0.014339 0.029635 -0.050328 0.062307 0.032871 0.022908 0.011905 -0.025546 -0.013175 -0.068317 0.01208 0.025212 -0.05257 0.065314 -0.094591 -0.016332 -0.088924 -0.016329 -0.043363 0.016015 -0.015563 0.018581 0.11897 0.020031 0.057082 0.068685 -0.052391 0.0073054 -0.041515 0.065364 0.026491 -0.033164 0.031571 -0.031753 0.071818 0.01759 0.012582 -0.046161 0.092337 0.054514 0.10957 -0.075304 0.099979 -0.02331 -0.0064567 -0.0055179 0.0092369 0.028451 0.018529 0.015273 -0.0059344 0.0049156 0.050217 0.060226 0.13939 -0.024804 -0.0090978 -0.042488 -0.046598 0.065886 -0.021713 0.0024955
- 0.0077628 -0.012325 0.025812 -0.01226 0.045199 0.025539 -0.0093103 -0.025333 0.0057572 0.011292 -0.035993 0.020579 -0.0067374 0.030107 -0.025919 -0.0036631 0.005328 -0.0017106 0.0071081 -0.010669 -0.025736 0.016637 -0.0063755 -0.0088271 0.0017802 0.0064861 0.016391 -0.010605 -0.02771 0.022921 -0.041244 0.01137 -0.0045505 0.0016941 0.010032 0.0082796 -0.018563 0.0023652 -0.0096916 0.014317 -0.018726 0.020357 0.0051217 0.013418 0.0063381 -0.0078646 -0.006163 -0.026109 0.00043915 0.0093029 -0.023462 0.020651 -0.036276 -0.0044868 -0.03086 -0.0017594 -0.009125 0.0019228 -0.0045147 0.00048073 0.035564 0.0077133 0.027573 0.017974 -0.017149 0.0045554 -0.018602 0.019225 0.0081411 -0.0067552 0.0098325 -0.012195 0.024429 0.0030526 0.0011866 -0.016663 0.037097 0.013519 0.03141 -0.029861 0.040373 -0.0084746 0.00023021 0.00033056 0.0098229 0.012405 -0.0015129 0.0070444 -0.0067258 0.0030729 0.018694 0.022412 0.043378 -0.0054957 -0.0042041 -0.019923 -0.017978 0.024722 -0.0099056 0.001624 0.0077628 -0.012325 0.025812 -0.01226 0.045199 0.025539 -0.0093103 -0.025333 0.0057572 0.011292 -0.035993 0.020579 -0.0067374 0.030107 -0.025919 -0.0036631 0.005328 -0.0017106 0.0071081 -0.010669 -0.025736 0.016637 -0.0063755 -0.0088271 0.0017802 0.0064861 0.016391 -0.010605 -0.02771 0.022921 -0.041244 0.01137 -0.0045505 0.0016941 0.010032 0.0082796 -0.018563 0.0023652 -0.0096916 0.014317 -0.018726 0.020357 0.0051217 0.013418 0.0063381 -0.0078646 -0.006163 -0.026109 0.00043915 0.0093029 -0.023462 0.020651 -0.036276 -0.0044868 -0.03086 -0.0017594 -0.009125 0.0019228 -0.0045147 0.00048073 0.035564 0.0077133 0.027573 0.017974 -0.017149 0.0045554 -0.018602 0.019225 0.0081411 -0.0067552 0.0098325 -0.012195 0.024429 0.0030526 0.0011866 -0.016663 0.037097 0.013519 0.03141 -0.029861 0.040373 -0.0084746 0.00023021 0.00033056 0.0098229 0.012405 -0.0015129 0.0070444 -0.0067258 0.0030729 0.018694 0.022412 0.043378 -0.0054957 -0.0042041 -0.019923 -0.017978 0.024722 -0.0099056 0.001624
tai 0.012731 -0.031825 0.03376 -0.018381 0.06624 0.043358 -0.013248 -0.036274 0.018801 0.011041 -0.049831 0.031527 -0.0059217 0.043823 -0.041081 -0.011034 0.0055491 0.0077556 0.0046343 -0.015883 -0.022599 0.024757 -0.012357 -0.011923 -7.7826e-05 -2.1528e-05 0.024285 -0.017218 -0.033203 0.044897 -0.062119 0.01356 -0.012226 -0.00021662 0.0081979 0.0097099 -0.027546 0.011751 -0.0086335 0.01425 -0.020635 0.030705 0.017131 0.007729 0.0072541 -0.013206 -0.0087667 -0.037733 0.0033024 0.014547 -0.025635 0.033906 -0.049751 -0.010937 -0.044423 -0.0072934 -0.023264 0.004083 -0.0071954 0.010517 0.060231 0.013849 0.027885 0.030253 -0.02626 0.006614 -0.022187 0.032404 0.013054 -0.015556 0.016445 -0.017688 0.031089 0.0076289 0.0058337 -0.02002 0.045046 0.026124 0.051511 -0.03806 0.051361 -0.008961 -0.0002909 -0.0076985 0.0071695 0.01522 0.010265 0.0098068 -0.00454 -0.0032152 0.021156 0.030175 0.06903 -0.01026 -0.0080973 -0.02084 -0.024844 0.030639 -0.0079903 0.0045586 0.012731 -0.031825 0.03376 -0.018381 0.06624 0.043358 -0.013248 -0.036274 0.018801 0.011041 -0.049831 0.031527 -0.0059217 0.043823 -0.041081 -0.011034 0.0055491 0.0077556 0.0046343 -0.015883 -0.022599 0.024757 -0.012357 -0.011923 -7.7826e-05 -2.1528e-05 0.024285 -0.017218 -0.033203 0.044897 -0.062119 0.01356 -0.012226 -0.00021662 0.0081979 0.0097099 -0.027546 0.011751 -0.0086335 0.01425 -0.020635 0.030705 0.017131 0.007729 0.0072541 -0.013206 -0.0087667 -0.037733 0.0033024 0.014547 -0.025635 0.033906 -0.049751 -0.010937 -0.044423 -0.0072934 -0.023264 0.004083 -0.0071954 0.010517 0.060231 0.013849 0.027885 0.030253 -0.02626 0.006614 -0.022187 0.032404 0.013054 -0.015556 0.016445 -0.017688 0.031089 0.0076289 0.0058337 -0.02002 0.045046 0.026124 0.051511 -0.03806 0.051361 -0.008961 -0.0002909 -0.0076985 0.0071695 0.01522 0.010265 0.0098068 -0.00454 -0.0032152 0.021156 0.030175 0.06903 -0.01026 -0.0080973 -0.02084 -0.024844 0.030639 -0.0079903 0.0045586
löytyy 0.0066338 -0.030812 0.040774 -0.01912 0.076852 0.048578 -0.014432 -0.035596 0.018508 0.013797 -0.056035 0.034582 -0.0047097 0.051387 -0.047339 -0.013639 0.0089154 0.0095578 0.0025963 -0.017368 -0.033266 0.031472 -0.018184 -0.011641 0.00015204 -0.0036802 0.026515 -0.021496 -0.039285 0.046051 -0.070621 0.019117 -0.0077175 0.0014775 0.0095798 0.0090091 -0.031223 0.014579 -0.0083916 0.017652 -0.029514 0.037652 0.017218 0.01117 0.0059317 -0.014628 -0.0073371 -0.040685 0.0070319 0.014424 -0.029602 0.038549 -0.056354 -0.0095112 -0.053831 -0.012259 -0.026926 0.0093757 -0.0084676 0.011696 0.068987 0.0091595 0.035902 0.041172 -0.035545 0.0037463 -0.024099 0.036941 0.017412 -0.018725 0.018389 -0.01758 0.041512 0.0099173 0.0098142 -0.026396 0.055505 0.03128 0.061898 -0.042187 0.05963 -0.013729 -0.004791 -0.0010022 0.0055552 0.014879 0.0083069 0.0064759 -0.00053784 0.0031602 0.025922 0.037985 0.078201 -0.014082 -0.0069247 -0.027518 -0.028692 0.040036 -0.012434 0.0025404 0.0066338 -0.030812 0.040774 -0.01912 0.076852 0.048578 -0.014432 -0.035596 0.018508 0.013797 -0.056035 0.034582 -0.0047097 0.051387 -0.047339 -0.013639 0.0089154 0.0095578 0.0025963 -0.017368 -0.033266 0.031472 -0.018184 -0.011641 0.00015204 -0.0036802 0.026515 -0.021496 -0.039285 0.046051 -0.070621 0.019117 -0.0077175 0.0014775 0.0095798 0.0090091 -0.031223 0.014579 -0.0083916 0.017652 -0.029514 0.037652 0.017218 0.01117 0.0059317 -0.014628 -0.0073371 -0.040685 0.0070319 0.014424 -0.029602 0.038549 -0.056354 -0.0095112 -0.053831 -0.012259 -0.026926 0.0093757 -0.0084676 0.011696 0.068987 0.0091595 0.035902 0.041172 -0.035545 0.0037463 -0.024099 0.036941 0.017412 -0.018725 0.018389 -0.01758 0.041512 0.0099173 0.0098142 -0.026396 0.055505 0.03128 0.061898 -0.042187 0.05963 -0.013729 -0.004791 -0.0010022 0.0055552 0.014879 0.0083069 0.0064759 -0.00053784 0.0031602 0.025922 0.037985 0.078201 -0.014082 -0.0069247 -0.027518 -0.028692 0.040036 -0.012434 0.0025404
ei 0.01195 -0.053506 0.066147 -0.027365 0.1251 0.071052 -0.022138 -0.058923 0.030311 0.017548 -0.087818 0.057989 -0.0054215 0.078043 -0.07448 -0.026088 0.013033 0.01521 0.01149 -0.024923 -0.055466 0.05032 -0.030139 -0.017162 -0.0027306 -0.0036356 0.044374 -0.035932 -0.064826 0.077268 -0.11582 0.030075 -0.014607 0.0063461 0.0096817 0.020807 -0.04432 0.027523 -0.015217 0.032171 -0.047212 0.057583 0.026608 0.023877 0.01385 -0.020998 -0.013009 -0.062068 0.01384 0.02664 -0.0555 0.065171 -0.083664 -0.017546 -0.083111 -0.017017 -0.040412 0.014582 -0.0095724 0.021818 0.11212 0.017785 0.057412 0.063773 -0.053918 0.0070322 -0.040458 0.057362 0.0231 -0.03108 0.029338 -0.029832 0.067525 0.012702 0.013506 -0.044431 0.085202 0.049767 0.10253 -0.064604 0.089971 -0.020835 -0.0060178 -0.0086554 0.013974 0.027837 0.01233 0.012857 -0.0065009 0.0052809 0.040563 0.051754 0.129 -0.016903 -0.014903 -0.042356 -0.047032 0.061617 -0.01953 0.0044108 0.01195 -0.053506 0.066147 -0.027365 0.1251 0.071052 -0.022138 -0.058923 0.030311 0.017548 -0.087818 0.057989 -0.0054215 0.078043 -0.07448 -0.026088 0.013033 0.01521 0.01149 -0.024923 -0.055466 0.05032 -0.030139 -0.017162 -0.0027306 -0.0036356 0.044374 -0.035932 -0.064826 0.077268 -0.11582 0.030075 -0.014607 0.0063461 0.0096817 0.020807 -0.04432 0.027523 -0.015217 0.032171 -0.047212 0.057583 0.026608 0.023877 0.01385 -0.020998 -0.013009 -0.062068 0.01384 0.02664 -0.0555 0.065171 -0.083664 -0.017546 -0.083111 -0.017017 -0.040412 0.014582 -0.0095724 0.021818 0.11212 0.017785 0.057412 0.063773 -0.053918 0.0070322 -0.040458 0.057362 0.0231 -0.03108 0.029338 -0.029832 0.067525 0.012702 0.013506 -0.044431 0.085202 0.049767 0.10253 -0.064604 0.089971 -0.020835 -0.0060178 -0.0086554 0.013974 0.027837 0.01233 0.012857 -0.0065009 0.0052809 0.040563 0.051754 0.129 -0.016903 -0.014903 -0.042356 -0.047032 0.061617 -0.01953 0.0044108
joka 0.012745 -0.046723 0.059425 -0.025431 0.11403 0.069488 -0.019659 -0.050756 0.02813 0.015498 -0.082563 0.050404 -0.0074479 0.068765 -0.065049 -0.018293 0.0082492 0.01115 0.0052966 -0.021842 -0.04548 0.047379 -0.028741 -0.016582 -0.0045251 -0.0071871 0.037949 -0.031732 -0.060549 0.067906 -0.10471 0.023722 -0.011429 0.0050141 0.0080942 0.015919 -0.044797 0.023128 -0.013588 0.025309 -0.039834 0.052471 0.024584 0.018044 0.011699 -0.019141 -0.011377 -0.060664 0.0071216 0.024598 -0.046545 0.054238 -0.077135 -0.010794 -0.075236 -0.013825 -0.037898 0.012818 -0.012443 0.014604 0.09936 0.015922 0.051068 0.05857 -0.046815 0.0064137 -0.035221 0.052813 0.019779 -0.027705 0.027048 -0.027396 0.060429 0.011745 0.010447 -0.040902 0.079613 0.043051 0.090116 -0.056265 0.083782 -0.017785 -0.0022453 -0.0064674 0.011887 0.025274 0.010699 0.0087507 -0.0052454 0.004585 0.036932 0.049914 0.11661 -0.0212 -0.0085412 -0.037131 -0.038621 0.057555 -0.021035 0.0021432 0.012745 -0.046723 0.059425 -0.025431 0.11403 0.069488 -0.019659 -0.050756 0.02813 0.015498 -0.082563 0.050404 -0.0074479 0.068765 -0.065049 -0.018293 0.0082492 0.01115 0.0052966 -0.021842 -0.04548 0.047379 -0.028741 -0.016582 -0.0045251 -0.0071871 0.037949 -0.031732 -0.060549 0.067906 -0.10471 0.023722 -0.011429 0.0050141 0.0080942 0.015919 -0.044797 0.023128 -0.013588 0.025309 -0.039834 0.052471 0.024584 0.018044 0.011699 -0.019141 -0.011377 -0.060664 0.0071216 0.024598 -0.046545 0.054238 -0.077135 -0.010794 -0.075236 -0.013825 -0.037898 0.012818 -0.012443 0.014604 0.09936 0.015922 0.051068 0.05857 -0.046815 0.0064137 -0.035221 0.052813 0.019779 -0.027705 0.027048 -0.027396 0.060429 0.011745 0.010447 -0.040902 0.079613 0.043051 0.090116 -0.056265 0.083782 -0.017785 -0.0022453 -0.0064674 0.011887 0.025274 0.010699 0.0087507 -0.0052454 0.004585 0.036932 0.049914 0.11661 -0.0212 -0.0085412 -0.037131 -0.038621 0.057555 -0.021035 0.0021432
mutta 0.021116 -0.074689 0.093738 -0.044762 0.18178 0.11315 -0.029853 -0.084671 0.045772 0.030908 -0.12616 0.084823 -0.013845 0.11195 -0.10478 -0.031446 0.019872 0.022318 0.0065738 -0.036259 -0.073237 0.072767 -0.041613 -0.026119 -0.0011692 -0.0086617 0.062188 -0.048226 -0.095352 0.10838 -0.1659 0.037898 -0.021636 0.0046664 0.022365 0.027292 -0.072344 0.033827 -0.022001 0.039522 -0.065517 0.087601 0.040041 0.028952 0.014562 -0.033432 -0.016106 -0.094679 0.015552 0.03696 -0.075524 0.087425 -0.12804 -0.022897 -0.12084 -0.026042 -0.057321 0.021029 -0.01499 0.026125 0.1614 0.028582 0.078342 0.094746 -0.078772 0.0071409 -0.054387 0.0835 0.034067 -0.041804 0.043082 -0.040544 0.096472 0.022872 0.017052 -0.065438 0.12569 0.071288 0.14585 -0.094953 0.13616 -0.031027 -0.011955 -0.0097842 0.0178 0.038527 0.02247 0.018072 -0.0042588 0.0031255 0.060098 0.077413 0.18438 -0.03591 -0.015046 -0.0607 -0.06261 0.086555 -0.027839 0.0049704 0.021116 -0.074689 0.093738 -0.044762 0.18178 0.11315 -0.029853 -0.084671 0.045772 0.030908 -0.12616 0.084823 -0.013845 0.11195 -0.10478 -0.031446 0.019872 0.022318 0.0065738 -0.036259 -0.073237 0.072767 -0.041613 -0.026119 -0.0011692 -0.0086617 0.062188 -0.048226 -0.095352 0.10838 -0.1659 0.037898 -0.021636 0.0046664 0.022365 0.027292 -0.072344 0.033827 -0.022001 0.039522 -0.065517 0.087601 0.040041 0.028952 0.014562 -0.033432 -0.016106 -0.094679 0.015552 0.03696 -0.075524 0.087425 -0.12804 -0.022897 -0.12084 -0.026042 -0.057321 0.021029 -0.01499 0.026125 0.1614 0.028582 0.078342 0.094746 -0.078772 0.0071409 -0.054387 0.0835 0.034067 -0.041804 0.043082 -0.040544 0.096472 0.022872 0.017052 -0.065438 0.12569 0.071288 0.14585 -0.094953 0.13616 -0.031027 -0.011955 -0.0097842 0.0178 0.038527 0.02247 0.018072 -0.0042588 0.0031255 0.060098 0.077413 0.18438 -0.03591 -0.015046 -0.0607 -0.06261 0.086555 -0.027839 0.0049704
: 0.0065582 -0.019917 0.025094 -0.011905 0.049157 0.036679 -0.0060344 -0.024315 0.010002 0.0092809 -0.039245 0.026857 8.9207e-05 0.033438 -0.024877 -0.014272 0.0081483 0.000332 0.0012876 -0.013536 -0.018167 0.024193 -0.01485 -0.0042681 -0.00034149 0.0014073 0.0097982 -0.014609 -0.030055 0.034295 -0.048158 0.010164 -0.011013 -0.0042869 0.0097725 0.0098966 -0.019675 0.010146 -0.0097994 0.0090003 -0.0186 0.030636 0.016934 0.011895 0.010318 -0.011951 -0.0076306 -0.02738 -0.0027229 0.013811 -0.02625 0.023034 -0.032134 -0.014393 -0.025099 -0.0053141 -0.016581 0.0030414 -0.0058996 -0.0013111 0.045358 0.0067055 0.027012 0.027876 -0.017505 -0.0047961 -0.018081 0.023406 0.0022339 -0.012626 0.0055105 -0.007562 0.034008 0.007359 -0.0017234 -0.020301 0.03114 0.020384 0.041569 -0.030194 0.039698 -0.0034316 -0.0025898 0.0030653 0.0020734 0.012065 0.014626 0.0037044 0.0036675 -0.0055604 0.014382 0.025805 0.046587 -0.0073475 -0.00094559 -0.015584 -0.02634 0.024221 -0.010852 -0.0016908 0.0065582 -0.019917 0.025094 -0.011905 0.049157 0.036679 -0.0060344 -0.024315 0.010002 0.0092809 -0.039245 0.026857 8.9207e-05 0.033438 -0.024877 -0.014272 0.0081483 0.000332 0.0012876 -0.013536 -0.018167 0.024193 -0.01485 -0.0042681 -0.00034149 0.0014073 0.0097982 -0.014609 -0.030055 0.034295 -0.048158 0.010164 -0.011013 -0.0042869 0.0097725 0.0098966 -0.019675 0.010146 -0.0097994 0.0090003 -0.0186 0.030636 0.016934 0.011895 0.010318 -0.011951 -0.0076306 -0.02738 -0.0027229 0.013811 -0.02625 0.023034 -0.032134 -0.014393 -0.025099 -0.0053141 -0.016581 0.0030414 -0.0058996 -0.0013111 0.045358 0.0067055 0.027012 0.027876 -0.017505 -0.0047961 -0.018081 0.023406 0.0022339 -0.012626 0.0055105 -0.007562 0.034008 0.007359 -0.0017234 -0.020301 0.03114 0.020384 0.041569 -0.030194 0.039698 -0.0034316 -0.0025898 0.0030653 0.0020734 0.012065 0.014626 0.0037044 0.0036675 -0.0055604 0.014382 0.025805 0.046587 -0.0073475 -0.00094559 -0.015584 -0.02634 0.024221 -0.010852 -0.0016908
antiikin 0.023346 -0.092282 0.11136 -0.05521 0.216 0.13459 -0.038598 -0.10074 0.058001 0.038094 -0.15604 0.098142 -0.011907 0.13653 -0.12814 -0.038641 0.024481 0.024836 0.0097246 -0.043928 -0.088528 0.088154 -0.050535 -0.029917 -0.0017588 -0.011479 0.075212 -0.058602 -0.11589 0.13019 -0.2037 0.046818 -0.025776 0.0059649 0.025748 0.029146 -0.086648 0.040701 -0.028612 0.045552 -0.082231 0.10225 0.047938 0.03842 0.016876 -0.038075 -0.01834 -0.11341 0.017846 0.043736 -0.091848 0.10807 -0.15271 -0.026411 -0.14436 -0.029281 -0.073618 0.022243 -0.020975 0.033347 0.19333 0.033212 0.098972 0.11591 -0.095545 0.0102 -0.067736 0.1025 0.045754 -0.053654 0.049726 -0.051488 0.11521 0.024902 0.016926 -0.079833 0.15264 0.085579 0.17435 -0.11474 0.16443 -0.035263 -0.010914 -0.0077912 0.01685 0.044704 0.027905 0.020749 -0.006526 0.0059369 0.073054 0.095993 0.22635 -0.042431 -0.016033 -0.071903 -0.076688 0.10761 -0.036775 0.0088716 0.023346 -0.092282 0.11136 -0.05521 0.216 0.13459 -0.038598 -0.10074 0.058001 0.038094 -0.15604 0.098142 -0.011907 0.13653 -0.12814 -0.038641 0.024481 0.024836 0.0097246 -0.043928 -0.088528 0.088154 -0.050535 -0.029917 -0.0017588 -0.011479 0.075212 -0.058602 -0.11589 0.13019 -0.2037 0.046818 -0.025776 0.0059649 0.025748 0.029146 -0.086648 0.040701 -0.028612 0.045552 -0.082231 0.10225 0.047938 0.03842 0.016876 -0.038075 -0.01834 -0.11341 0.017846 0.043736 -0.091848 0.10807 -0.15271 -0.026411 -0.14436 -0.029281 -0.073618 0.022243 -0.020975 0.033347 0.19333 0.033212 0.098972 0.11591 -0.095545 0.0102 -0.067736 0.1025 0.045754 -0.053654 0.049726 -0.051488 0.11521 0.024902 0.016926 -0.079833 0.15264 0.085579 0.17435 -0.11474 0.16443 -0.035263 -0.010914 -0.0077912 0.01685 0.044704 0.027905 0.020749 -0.006526 0.0059369 0.073054 0.095993 0.22635 -0.042431 -0.016033 -0.071903 -0.076688 0.10761 -0.036775 0.0088716
the 0.036869 -0.15089 0.18043 -0.082166 0.35921 0.22429 -0.067575 -0.1762 0.095048 0.059496 -0.26125 0.15518 -0.033841 0.22157 -0.22239 -0.061467 0.033404 0.041917 0.003151 -0.086463 -0.14663 0.14133 -0.094963 -0.04798 0.010405 -0.024259 0.12614 -0.094129 -0.18444 0.22217 -0.33143 0.079217 -0.059251 0.0030595 0.051724 0.042922 -0.15899 0.066134 -0.041191 0.067333 -0.13523 0.15855 0.077242 0.052556 0.024752 -0.055288 -0.034383 -0.18243 0.038455 0.069314 -0.14805 0.18017 -0.25903 -0.043804 -0.2425 -0.049946 -0.11362 0.038553 -0.038713 0.058931 0.31468 0.05445 0.1533 0.19197 -0.16834 0.022979 -0.10929 0.16773 0.085765 -0.084918 0.086159 -0.077806 0.18867 0.039542 0.025211 -0.13613 0.25354 0.14042 0.28652 -0.20165 0.27629 -0.069425 -0.030605 -0.019058 0.016139 0.077363 0.02741 0.034732 -0.016531 0.008248 0.11868 0.1636 0.38205 -0.079073 -0.037893 -0.12428 -0.13419 0.18232 -0.0512 0.012465 0.036869 -0.15089 0.18043 -0.082166 0.35921 0.22429 -0.067575 -0.1762 0.095048 0.059496 -0.26125 0.15518 -0.033841 0.22157 -0.22239 -0.061467 0.033404 0.041917 0.003151 -0.086463 -0.14663 0.14133 -0.094963 -0.04798 0.010405 -0.024259 0.12614 -0.094129 -0.18444 0.22217 -0.33143 0.079217 -0.059251 0.0030595 0.051724 0.042922 -0.15899 0.066134 -0.041191 0.067333 -0.13523 0.15855 0.077242 0.052556 0.024752 -0.055288 -0.034383 -0.18243 0.038455 0.069314 -0.14805 0.18017 -0.25903 -0.043804 -0.2425 -0.049946 -0.11362 0.038553 -0.038713 0.058931 0.31468 0.05445 0.1533 0.19197 -0.16834 0.022979 -0.10929 0.16773 0.085765 -0.084918 0.086159 -0.077806 0.18867 0.039542 0.025211 -0.13613 0.25354 0.14042 0.28652 -0.20165 0.27629 -0.069425 -0.030605 -0.019058 0.016139 0.077363 0.02741 0.034732 -0.016531 0.008248 0.11868 0.1636 0.38205 -0.079073 -0.037893 -0.12428 -0.13419 0.18232 -0.0512 0.012465
Maijaliisa. 0.0078588 -0.024227 0.029327 -0.01485 0.059009 0.033273 -0.010371 -0.027377 0.014955 0.010128 -0.04164 0.027454 -0.0042561 0.037613 -0.033317 -0.010238 0.0058362 0.0071729 0.0022766 -0.012915 -0.024017 0.022133 -0.014335 -0.0082264 -0.0011022 -0.0039809 0.018758 -0.016381 -0.032072 0.034658 -0.054424 0.013736 -0.0084965 0.0021414 0.0068651 0.0074397 -0.024357 0.01133 -0.0063128 0.0094722 -0.022478 0.028896 0.01271 0.010025 0.0039685 -0.0086069 -0.0060942 -0.031005 0.0048909 0.01385 -0.02382 0.028843 -0.041008 -0.0072316 -0.039939 -0.0073434 -0.019932 0.006773 -0.0052159 0.0075887 0.050589 0.0092192 0.026089 0.032116 -0.025423 0.0024582 -0.01679 0.026605 0.01153 -0.013581 0.013511 -0.014532 0.029459 0.0058587 0.0024435 -0.021595 0.041232 0.022578 0.047817 -0.029323 0.043331 -0.0097869 -0.0024534 -0.0019319 0.0044842 0.01288 0.0072132 0.0052423 -0.0032553 0.00032442 0.019878 0.025057 0.059325 -0.01271 -0.0040482 -0.019731 -0.020811 0.029035 -0.0093575 -8.2199e-06 0.0078588 -0.024227 0.029327 -0.01485 0.059009 0.033273 -0.010371 -0.027377 0.014955 0.010128 -0.04164 0.027454 -0.0042561 0.037613 -0.033317 -0.010238 0.0058362 0.0071729 0.0022766 -0.012915 -0.024017 0.022133 -0.014335 -0.0082264 -0.0011022 -0.0039809 0.018758 -0.016381 -0.032072 0.034658 -0.054424 0.013736 -0.0084965 0.0021414 0.0068651 0.0074397 -0.024357 0.01133 -0.0063128 0.0094722 -0.022478 0.028896 0.01271 0.010025 0.0039685 -0.0086069 -0.0060942 -0.031005 0.0048909 0.01385 -0.02382 0.028843 -0.041008 -0.0072316 -0.039939 -0.0073434 -0.019932 0.006773 -0.0052159 0.0075887 0.050589 0.0092192 0.026089 0.032116 -0.025423 0.0024582 -0.01679 0.026605 0.01153 -0.013581 0.013511 -0.014532 0.029459 0.0058587 0.0024435 -0.021595 0.041232 0.022578 0.047817 -0.029323 0.043331 -0.0097869 -0.0024534 -0.0019319 0.0044842 0.01288 0.0072132 0.0052423 -0.0032553 0.00032442 0.019878 0.025057 0.059325 -0.01271 -0.0040482 -0.019731 -0.020811 0.029035 -0.0093575 -8.2199e-06
Dieckmann, 0.002716 -0.010291 0.013515 -0.0093525 0.029259 0.018304 -0.0051412 -0.013466 0.0080912 0.0055438 -0.021111 0.015304 -0.0025941 0.017714 -0.01857 -0.0061107 0.0039611 0.0027047 0.0013953 -0.0081784 -0.010793 0.010933 -0.008227 -0.0015721 -0.0011492 -0.0010967 0.012056 -0.0091412 -0.017404 0.018704 -0.029456 0.0055919 -0.0041938 6.1593e-05 0.0023286 0.0033938 -0.013993 0.0060051 -0.0025236 0.0056325 -0.011691 0.015231 0.0076257 0.0035821 0.0025915 -0.0057896 -0.0015282 -0.015726 0.00395 0.0076432 -0.013152 0.016941 -0.019371 -0.0036897 -0.021413 -0.0048005 -0.011134 0.0035939 -0.0026154 0.0057608 0.026844 0.0044874 0.014146 0.015558 -0.012767 0.0020828 -0.0083397 0.014394 0.0059154 -0.0057922 0.0069489 -0.0071523 0.015903 0.0038369 0.0035473 -0.0091027 0.022145 0.011428 0.024381 -0.016556 0.023092 -0.0027456 -0.0014281 -0.0031162 0.0022985 0.0062373 0.0038403 0.0021673 -0.0011133 0.00063272 0.010023 0.014565 0.030997 -0.0069612 -0.00041755 -0.010065 -0.011173 0.016547 -0.0048603 0.0015024 0.002716 -0.010291 0.013515 -0.0093525 0.029259 0.018304 -0.0051412 -0.013466 0.0080912 0.0055438 -0.021111 0.015304 -0.0025941 0.017714 -0.01857 -0.0061107 0.0039611 0.0027047 0.0013953 -0.0081784 -0.010793 0.010933 -0.008227 -0.0015721 -0.0011492 -0.0010967 0.012056 -0.0091412 -0.017404 0.018704 -0.029456 0.0055919 -0.0041938 6.1593e-05 0.0023286 0.0033938 -0.013993 0.0060051 -0.0025236 0.0056325 -0.011691 0.015231 0.0076257 0.0035821 0.0025915 -0.0057896 -0.0015282 -0.015726 0.00395 0.0076432 -0.013152 0.016941 -0.019371 -0.0036897 -0.021413 -0.0048005 -0.011134 0.0035939 -0.0026154 0.0057608 0.026844 0.0044874 0.014146 0.015558 -0.012767 0.0020828 -0.0083397 0.014394 0.0059154 -0.0057922 0.0069489 -0.0071523 0.015903 0.0038369 0.0035473 -0.0091027 0.022145 0.011428 0.024381 -0.016556 0.023092 -0.0027456 -0.0014281 -0.0031162 0.0022985 0.0062373 0.0038403 0.0021673 -0.0011133 0.00063272 0.010023 0.014565 0.030997 -0.0069612 -0.00041755 -0.010065 -0.011173 0.016547 -0.0048603 0.0015024
Helsinki 0.0085132 -0.033311 0.04284 -0.018761 0.083675 0.052616 -0.012693 -0.03961 0.021838 0.015662 -0.060051 0.038536 -0.0058713 0.053289 -0.049036 -0.014679 0.0091046 0.0093561 0.0024052 -0.015686 -0.033391 0.0356 -0.018523 -0.00983 -0.0012083 -0.001869 0.027865 -0.022669 -0.044402 0.04854 -0.077568 0.018508 -0.009256 0.0012548 0.0089652 0.012395 -0.034443 0.014666 -0.011096 0.016248 -0.030777 0.041999 0.020518 0.014928 0.0073441 -0.015838 -0.0068349 -0.044138 0.008563 0.017182 -0.033869 0.041711 -0.057984 -0.0083591 -0.054805 -0.010777 -0.027247 0.0089895 -0.0076461 0.012969 0.073838 0.013086 0.03853 0.043467 -0.036637 0.0047925 -0.024311 0.04018 0.017999 -0.019757 0.020161 -0.019539 0.043997 0.0099702 0.0081776 -0.029344 0.059186 0.03419 0.066905 -0.044887 0.065032 -0.013806 -0.0037437 -0.0015748 0.0046944 0.016844 0.010662 0.0091204 -0.0036941 0.0020716 0.026946 0.035293 0.086842 -0.014997 -0.0061245 -0.027316 -0.029782 0.041273 -0.010788 0.0023587 0.0085132 -0.033311 0.04284 -0.018761 0.083675 0.052616 -0.012693 -0.03961 0.021838 0.015662 -0.060051 0.038536 -0.0058713 0.053289 -0.049036 -0.014679 0.0091046 0.0093561 0.0024052 -0.015686 -0.033391 0.0356 -0.018523 -0.00983 -0.0012083 -0.001869 0.027865 -0.022669 -0.044402 0.04854 -0.077568 0.018508 -0.009256 0.0012548 0.0089652 0.012395 -0.034443 0.014666 -0.011096 0.016248 -0.030777 0.041999 0.020518 0.014928 0.0073441 -0.015838 -0.0068349 -0.044138 0.008563 0.017182 -0.033869 0.041711 -0.057984 -0.0083591 -0.054805 -0.010777 -0.027247 0.0089895 -0.0076461 0.012969 0.073838 0.013086 0.03853 0.043467 -0.036637 0.0047925 -0.024311 0.04018 0.017999 -0.019757 0.020161 -0.019539 0.043997 0.0099702 0.0081776 -0.029344 0.059186 0.03419 0.066905 -0.044887 0.065032 -0.013806 -0.0037437 -0.0015748 0.0046944 0.016844 0.010662 0.0091204 -0.0036941 0.0020716 0.026946 0.035293 0.086842 -0.014997 -0.0061245 -0.027316 -0.029782 0.041273 -0.010788 0.0023587
oli 0.019686 -0.075006 0.092918 -0.039766 0.17458 0.10698 -0.030977 -0.073415 0.039744 0.027419 -0.12311 0.08128 -0.0087382 0.10952 -0.10513 -0.025712 0.018345 0.018405 0.0092184 -0.035018 -0.071835 0.066345 -0.044177 -0.026358 -0.0042284 -0.0054572 0.058281 -0.047408 -0.095799 0.10476 -0.16407 0.039549 -0.020186 0.0048772 0.022967 0.027684 -0.065714 0.033272 -0.019538 0.035716 -0.066623 0.087788 0.035507 0.025392 0.020328 -0.033375 -0.017224 -0.097275 0.010676 0.033304 -0.073357 0.085835 -0.12672 -0.021938 -0.11532 -0.021595 -0.054965 0.017884 -0.018457 0.027268 0.15363 0.030926 0.083396 0.090614 -0.073031 0.0066552 -0.052596 0.084105 0.036035 -0.042772 0.042949 -0.0444 0.092805 0.022434 0.018082 -0.063015 0.12086 0.069536 0.14204 -0.08704 0.1343 -0.02925 -0.0078092 -0.005443 0.022941 0.038125 0.02292 0.019396 -0.007631 0.00324 0.057578 0.073119 0.18255 -0.031609 -0.014288 -0.060513 -0.059153 0.080109 -0.026189 0.006584 0.019686 -0.075006 0.092918 -0.039766 0.17458 0.10698 -0.030977 -0.073415 0.039744 0.027419 -0.12311 0.08128 -0.0087382 0.10952 -0.10513 -0.025712 0.018345 0.018405 0.0092184 -0.035018 -0.071835 0.066345 -0.044177 -0.026358 -0.0042284 -0.0054572 0.058281 -0.047408 -0.095799 0.10476 -0.16407 0.039549 -0.020186 0.0048772 0.022967 0.027684 -0.065714 0.033272 -0.019538 0.035716 -0.066623 0.087788 0.035507 0.025392 0.020328 -0.033375 -0.017224 -0.097275 0.010676 0.033304 -0.073357 0.085835 -0.12672 -0.021938 -0.11532 -0.021595 -0.054965 0.017884 -0.018457 0.027268 0.15363 0.030926 0.083396 0.090614 -0.073031 0.0066552 -0.052596 0.084105 0.036035 -0.042772 0.042949 -0.0444 0.092805 0.022434 0.018082 -0.063015 0.12086 0.069536 0.14204 -0.08704 0.1343 -0.02925 -0.0078092 -0.005443 0.022941 0.038125 0.02292 0.019396 -0.007631 0.00324 0.057578 0.073119 0.18255 -0.031609 -0.014288 -0.060513 -0.059153 0.080109 -0.026189 0.006584
olla 0.013194 -0.040113 0.051771 -0.023613 0.098703 0.058388 -0.019107 -0.04608 0.022946 0.016226 -0.068733 0.047359 -0.0073593 0.06088 -0.057549 -0.014993 0.0079784 0.01388 0.0066395 -0.019368 -0.040471 0.038407 -0.024898 -0.013602 -0.002948 -0.0036639 0.034762 -0.028841 -0.051244 0.059723 -0.090087 0.019331 -0.01215 0.00017388 0.0085276 0.014747 -0.040142 0.020075 -0.014947 0.021468 -0.037923 0.046999 0.023448 0.015382 0.0088459 -0.018957 -0.009661 -0.052727 0.0081635 0.016607 -0.040642 0.05079 -0.068608 -0.0089043 -0.064438 -0.011549 -0.034006 0.010257 -0.009125 0.012864 0.086732 0.011894 0.046537 0.051143 -0.042174 0.0020758 -0.028263 0.044073 0.018164 -0.025112 0.02439 -0.021719 0.051439 0.01103 0.0069576 -0.033803 0.068978 0.038582 0.077906 -0.053106 0.074069 -0.017035 -0.0041089 -0.0056675 0.010386 0.020947 0.013682 0.0098938 -0.0062055 0.0051368 0.030884 0.041409 0.10227 -0.019176 -0.0085615 -0.034093 -0.034294 0.046814 -0.014804 0.0035189 0.013194 -0.040113 0.051771 -0.023613 0.098703 0.058388 -0.019107 -0.04608 0.022946 0.016226 -0.068733 0.047359 -0.0073593 0.06088 -0.057549 -0.014993 0.0079784 0.01388 0.0066395 -0.019368 -0.040471 0.038407 -0.024898 -0.013602 -0.002948 -0.0036639 0.034762 -0.028841 -0.051244 0.059723 -0.090087 0.019331 -0.01215 0.00017388 0.0085276 0.014747 -0.040142 0.020075 -0.014947 0.021468 -0.037923 0.046999 0.023448 0.015382 0.0088459 -0.018957 -0.009661 -0.052727 0.0081635 0.016607 -0.040642 0.05079 -0.068608 -0.0089043 -0.064438 -0.011549 -0.034006 0.010257 -0.009125 0.012864 0.086732 0.011894 0.046537 0.051143 -0.042174 0.0020758 -0.028263 0.044073 0.018164 -0.025112 0.02439 -0.021719 0.051439 0.01103 0.0069576 -0.033803 0.068978 0.038582 0.077906 -0.053106 0.074069 -0.017035 -0.0041089 -0.0056675 0.010386 0.020947 0.013682 0.0098938 -0.0062055 0.0051368 0.030884 0.041409 0.10227 -0.019176 -0.0085615 -0.034093 -0.034294 0.046814 -0.014804 0.0035189
of 0.018939 -0.096726 0.11318 -0.051904 0.22979 0.1379 -0.043505 -0.10474 0.060761 0.036054 -0.16396 0.092893 -0.022374 0.14435 -0.13631 -0.035019 0.021775 0.028699 0.0023725 -0.054319 -0.088758 0.090647 -0.055437 -0.031769 0.00097122 -0.019516 0.078344 -0.055106 -0.11948 0.14065 -0.20471 0.049939 -0.032774 0.0031093 0.025792 0.021849 -0.094899 0.044677 -0.023604 0.042847 -0.088972 0.096564 0.042219 0.039335 0.018664 -0.02606 -0.020171 -0.12018 0.022921 0.043946 -0.08835 0.11079 -0.15913 -0.030968 -0.15171 -0.034218 -0.067486 0.026783 -0.023674 0.032609 0.19888 0.03651 0.090783 0.12071 -0.10057 0.010833 -0.069359 0.10861 0.054186 -0.047745 0.055412 -0.045769 0.11616 0.024207 0.015062 -0.079589 0.15622 0.087004 0.17496 -0.12532 0.17219 -0.042644 -0.015556 -0.014921 0.010701 0.051129 0.012785 0.020661 -0.0081418 0.0041715 0.078077 0.099915 0.23597 -0.048438 -0.021454 -0.076813 -0.086049 0.11359 -0.034586 0.0062777 0.018939 -0.096726 0.11318 -0.051904 0.22979 0.1379 -0.043505 -0.10474 0.060761 0.036054 -0.16396 0.092893 -0.022374 0.14435 -0.13631 -0.035019 0.021775 0.028699 0.0023725 -0.054319 -0.088758 0.090647 -0.055437 -0.031769 0.00097122 -0.019516 0.078344 -0.055106 -0.11948 0.14065 -0.20471 0.049939 -0.032774 0.0031093 0.025792 0.021849 -0.094899 0.044677 -0.023604 0.042847 -0.088972 0.096564 0.042219 0.039335 0.018664 -0.02606 -0.020171 -0.12018 0.022921 0.043946 -0.08835 0.11079 -0.15913 -0.030968 -0.15171 -0.034218 -0.067486 0.026783 -0.023674 0.032609 0.19888 0.03651 0.090783 0.12071 -0.10057 0.010833 -0.069359 0.10861 0.054186 -0.047745 0.055412 -0.045769 0.11616 0.024207 0.015062 -0.079589 0.15622 0.087004 0.17496 -0.12532 0.17219 -0.042644 -0.015556 -0.014921 0.010701 0.051129 0.012785 0.020661 -0.0081418 0.0041715 0.078077 0.099915 0.23597 -0.048438 -0.021454 -0.076813 -0.086049 0.11359 -0.034586 0.0062777
tietoa 0.0073305 -0.025721 0.034083 -0.014552 0.060073 0.039197 -0.012098 -0.028496 0.018444 0.010924 -0.045648 0.026284 -0.0040804 0.039009 -0.036808 -0.010999 0.0076527 0.0062814 0.0025243 -0.015274 -0.023392 0.026272 -0.014099 -0.008586 -0.0030108 -0.0019991 0.022241 -0.017399 -0.033812 0.034836 -0.058515 0.013932 -0.0083035 0.0010616 0.0053287 0.0089563 -0.026809 0.010995 -0.0044782 0.014628 -0.023508 0.029919 0.016384 0.0097148 0.0060315 -0.011388 -0.0041908 -0.032067 0.0084412 0.013413 -0.022822 0.028443 -0.043243 -0.0064744 -0.039281 -0.0087669 -0.02246 0.0038943 -0.0066339 0.008542 0.052682 0.010986 0.027408 0.032251 -0.026577 0.0022643 -0.018999 0.027224 0.011924 -0.014776 0.01487 -0.012923 0.032476 0.0069074 0.0040662 -0.022298 0.043756 0.024321 0.048063 -0.032568 0.04608 -0.0082151 -0.0036447 -0.0037418 0.0051821 0.011234 0.0055337 0.0068147 -0.0014977 0.0020408 0.021947 0.02746 0.062262 -0.013864 -0.0069592 -0.019969 -0.020366 0.030997 -0.0089904 -0.0002721 0.0073305 -0.025721 0.034083 -0.014552 0.060073 0.039197 -0.012098 -0.028496 0.018444 0.010924 -0.045648 0.026284 -0.0040804 0.039009 -0.036808 -0.010999 0.0076527 0.0062814 0.0025243 -0.015274 -0.023392 0.026272 -0.014099 -0.008586 -0.0030108 -0.0019991 0.022241 -0.017399 -0.033812 0.034836 -0.058515 0.013932 -0.0083035 0.0010616 0.0053287 0.0089563 -0.026809 0.010995 -0.0044782 0.014628 -0.023508 0.029919 0.016384 0.0097148 0.0060315 -0.011388 -0.0041908 -0.032067 0.0084412 0.013413 -0.022822 0.028443 -0.043243 -0.0064744 -0.039281 -0.0087669 -0.02246 0.0038943 -0.0066339 0.008542 0.052682 0.010986 0.027408 0.032251 -0.026577 0.0022643 -0.018999 0.027224 0.011924 -0.014776 0.01487 -0.012923 0.032476 0.0069074 0.0040662 -0.022298 0.043756 0.024321 0.048063 -0.032568 0.04608 -0.0082151 -0.0036447 -0.0037418 0.0051821 0.011234 0.0055337 0.0068147 -0.0014977 0.0020408 0.021947 0.02746 0.062262 -0.013864 -0.0069592 -0.019969 -0.020366 0.030997 -0.0089904 -0.0002721
että 0.010888 -0.043282 0.05072 -0.025404 0.098038 0.062517 -0.017944 -0.044249 0.024969 0.015898 -0.073826 0.04474 -0.004131 0.060285 -0.05805 -0.014184 0.011267 0.012935 0.0048215 -0.018346 -0.037493 0.038728 -0.021497 -0.013532 -0.0009229 -0.0069987 0.031622 -0.02775 -0.054976 0.057583 -0.08786 0.02028 -0.012913 0.0044501 0.0095707 0.011501 -0.04072 0.01643 -0.012281 0.019934 -0.036366 0.046554 0.020712 0.017497 0.0094825 -0.019352 -0.0066843 -0.053036 0.0098321 0.019279 -0.038123 0.047665 -0.068144 -0.013069 -0.064526 -0.01324 -0.029636 0.0096696 -0.011389 0.014286 0.086269 0.011735 0.044646 0.051246 -0.041306 0.0021013 -0.029796 0.045931 0.021392 -0.021943 0.023729 -0.018734 0.051825 0.012748 0.0074718 -0.03537 0.071893 0.036739 0.079001 -0.04931 0.070717 -0.018269 -0.0019313 -0.0046762 0.0081809 0.018898 0.013413 0.0076683 -0.0061615 0.0026966 0.034907 0.041407 0.10201 -0.019778 -0.0072003 -0.033549 -0.033284 0.050914 -0.012036 0.0019585 0.010888 -0.043282 0.05072 -0.025404 0.098038 0.062517 -0.017944 -0.044249 0.024969 0.015898 -0.073826 0.04474 -0.004131 0.060285 -0.05805 -0.014184 0.011267 0.012935 0.0048215 -0.018346 -0.037493 0.038728 -0.021497 -0.013532 -0.0009229 -0.0069987 0.031622 -0.02775 -0.054976 0.057583 -0.08786 0.02028 -0.012913 0.0044501 0.0095707 0.011501 -0.04072 0.01643 -0.012281 0.019934 -0.036366 0.046554 0.020712 0.017497 0.0094825 -0.019352 -0.0066843 -0.053036 0.0098321 0.019279 -0.038123 0.047665 -0.068144 -0.013069 -0.064526 -0.01324 -0.029636 0.0096696 -0.011389 0.014286 0.086269 0.011735 0.044646 0.051246 -0.041306 0.0021013 -0.029796 0.045931 0.021392 -0.021943 0.023729 -0.018734 0.051825 0.012748 0.0074718 -0.03537 0.071893 0.036739 0.079001 -0.04931 0.070717 -0.018269 -0.0019313 -0.0046762 0.0081809 0.018898 0.013413 0.0076683 -0.0061615 0.0026966 0.034907 0.041407 0.10201 -0.019778 -0.0072003 -0.033549 -0.033284 0.050914 -0.012036 0.0019585
ovat 0.0043616 -0.032556 0.03767 -0.020612 0.072104 0.044808 -0.011028 -0.031098 0.017143 0.010632 -0.054001 0.033879 -0.0057905 0.044943 -0.045198 -0.011589 0.0079255 0.0094117 0.0038706 -0.015407 -0.030231 0.0303 -0.017468 -0.013041 0.00052809 -0.00092839 0.025317 -0.018368 -0.03919 0.041553 -0.069452 0.013982 -0.0073703 0.0024055 0.010527 0.011364 -0.028657 0.016221 -0.0098319 0.012992 -0.028447 0.03486 0.017977 0.01273 0.0078186 -0.012059 -0.0073812 -0.038201 0.0009379 0.014519 -0.029873 0.03548 -0.047648 -0.0056555 -0.049012 -0.010036 -0.023776 0.0093983 -0.0040066 0.010172 0.06589 0.010976 0.032504 0.041596 -0.032513 0.0019231 -0.021827 0.035612 0.013676 -0.014705 0.014982 -0.018927 0.040792 0.0071328 0.0056469 -0.028527 0.052198 0.025852 0.057836 -0.038964 0.053376 -0.011824 -0.0030192 -0.0046275 0.0065657 0.017215 0.010902 0.0027196 -0.0026793 -0.00075118 0.026387 0.030582 0.074022 -0.018628 -0.0029575 -0.026284 -0.026916 0.033627 -0.011771 0.00014087 0.0043616 -0.032556 0.03767 -0.020612 0.072104 0.044808 -0.011028 -0.031098 0.017143 0.010632 -0.054001 0.033879 -0.0057905 0.044943 -0.045198 -0.011589 0.0079255 0.0094117 0.0038706 -0.015407 -0.030231 0.0303 -0.017468 -0.013041 0.00052809 -0.00092839 0.025317 -0.018368 -0.03919 0.041553 -0.069452 0.013982 -0.0073703 0.0024055 0.010527 0.011364 -0.028657 0.016221 -0.0098319 0.012992 -0.028447 0.03486 0.017977 0.01273 0.0078186 -0.012059 -0.0073812 -0.038201 0.0009379 0.014519 -0.029873 0.03548 -0.047648 -0.0056555 -0.049012 -0.010036 -0.023776 0.0093983 -0.0040066 0.010172 0.06589 0.010976 0.032504 0.041596 -0.032513 0.0019231 -0.021827 0.035612 0.013676 -0.014705 0.014982 -0.018927 0.040792 0.0071328 0.0056469 -0.028527 0.052198 0.025852 0.057836 -0.038964 0.053376 -0.011824 -0.0030192 -0.0046275 0.0065657 0.017215 0.010902 0.0027196 -0.0026793 -0.00075118 0.026387 0.030582 0.074022 -0.018628 -0.0029575 -0.026284 -0.026916 0.033627 -0.011771 0.00014087
joissa 0.013801 -0.05783 0.068316 -0.032146 0.13646 0.084883 -0.024485 -0.063456 0.035064 0.022304 -0.095718 0.060435 -0.0092678 0.086696 -0.080627 -0.023791 0.013908 0.016386 0.002803 -0.025293 -0.055741 0.05432 -0.031324 -0.019194 0.0020417 -0.0080325 0.045344 -0.034486 -0.072866 0.08148 -0.12779 0.027633 -0.018755 0.0062843 0.015264 0.015979 -0.054554 0.026461 -0.014758 0.030658 -0.05307 0.064293 0.031395 0.020456 0.012947 -0.023511 -0.012317 -0.072068 0.012113 0.028396 -0.05459 0.065447 -0.095997 -0.017075 -0.090678 -0.01831 -0.044432 0.01091 -0.016672 0.018238 0.12073 0.0206 0.057894 0.069356 -0.05736 0.0057654 -0.041625 0.062628 0.027048 -0.032755 0.033857 -0.030983 0.071432 0.015903 0.010549 -0.050365 0.094949 0.053666 0.10866 -0.073131 0.10339 -0.022802 -0.0078196 -0.0041373 0.010267 0.02746 0.017658 0.012704 -0.0022731 0.0044125 0.044614 0.060201 0.14255 -0.026471 -0.0095819 -0.044444 -0.047066 0.067664 -0.021583 0.005101 0.013801 -0.05783 0.068316 -0.032146 0.13646 0.084883 -0.024485 -0.063456 0.035064 0.022304 -0.095718 0.060435 -0.0092678 0.086696 -0.080627 -0.023791 0.013908 0.016386 0.002803 -0.025293 -0.055741 0.05432 -0.031324 -0.019194 0.0020417 -0.0080325 0.045344 -0.034486 -0.072866 0.08148 -0.12779 0.027633 -0.018755 0.0062843 0.015264 0.015979 -0.054554 0.026461 -0.014758 0.030658 -0.05307 0.064293 0.031395 0.020456 0.012947 -0.023511 -0.012317 -0.072068 0.012113 0.028396 -0.05459 0.065447 -0.095997 -0.017075 -0.090678 -0.01831 -0.044432 0.01091 -0.016672 0.018238 0.12073 0.0206 0.057894 0.069356 -0.05736 0.0057654 -0.041625 0.062628 0.027048 -0.032755 0.033857 -0.030983 0.071432 0.015903 0.010549 -0.050365 0.094949 0.053666 0.10866 -0.073131 0.10339 -0.022802 -0.0078196 -0.0041373 0.010267 0.02746 0.017658 0.012704 -0.0022731 0.0044125 0.044614 0.060201 0.14255 -0.026471 -0.0095819 -0.044444 -0.047066 0.067664 -0.021583 0.005101
and 0.026332 -0.099419 0.1241 -0.059976 0.24374 0.1494 -0.042264 -0.11634 0.064752 0.041721 -0.17569 0.10747 -0.022909 0.1498 -0.14709 -0.041068 0.025057 0.028182 0.0069131 -0.056294 -0.097568 0.10003 -0.061293 -0.037223 0.0057984 -0.0155 0.085062 -0.063144 -0.13069 0.15221 -0.22609 0.056532 -0.040969 0.0026926 0.034513 0.030005 -0.10575 0.046643 -0.026115 0.045711 -0.098265 0.10704 0.053117 0.033536 0.017564 -0.036704 -0.021295 -0.12911 0.025 0.05036 -0.10357 0.12161 -0.17537 -0.032327 -0.15874 -0.032084 -0.074924 0.028317 -0.022736 0.034033 0.21517 0.037557 0.10515 0.1284 -0.11252 0.017427 -0.071351 0.11359 0.059614 -0.053646 0.060534 -0.05206 0.12747 0.025604 0.015925 -0.094672 0.17134 0.095471 0.19441 -0.13684 0.1813 -0.044432 -0.017939 -0.011701 0.015616 0.050699 0.021412 0.022153 -0.0094823 0.003821 0.082255 0.10846 0.25666 -0.048715 -0.021604 -0.081421 -0.09388 0.12185 -0.03684 0.0050879 0.026332 -0.099419 0.1241 -0.059976 0.24374 0.1494 -0.042264 -0.11634 0.064752 0.041721 -0.17569 0.10747 -0.022909 0.1498 -0.14709 -0.041068 0.025057 0.028182 0.0069131 -0.056294 -0.097568 0.10003 -0.061293 -0.037223 0.0057984 -0.0155 0.085062 -0.063144 -0.13069 0.15221 -0.22609 0.056532 -0.040969 0.0026926 0.034513 0.030005 -0.10575 0.046643 -0.026115 0.045711 -0.098265 0.10704 0.053117 0.033536 0.017564 -0.036704 -0.021295 -0.12911 0.025 0.05036 -0.10357 0.12161 -0.17537 -0.032327 -0.15874 -0.032084 -0.074924 0.028317 -0.022736 0.034033 0.21517 0.037557 0.10515 0.1284 -0.11252 0.017427 -0.071351 0.11359 0.059614 -0.053646 0.060534 -0.05206 0.12747 0.025604 0.015925 -0.094672 0.17134 0.095471 0.19441 -0.13684 0.1813 -0.044432 -0.017939 -0.011701 0.015616 0.050699 0.021412 0.022153 -0.0094823 0.003821 0.082255 0.10846 0.25666 -0.048715 -0.021604 -0.081421 -0.09388 0.12185 -0.03684 0.0050879
kuitenkin 0.021952 -0.08855 0.11173 -0.050365 0.20981 0.12859 -0.038015 -0.096183 0.056512 0.035975 -0.15323 0.095543 -0.014106 0.13155 -0.12659 -0.037307 0.021711 0.024286 0.0067115 -0.042996 -0.086882 0.085806 -0.051223 -0.030098 -0.0034042 -0.0094234 0.07094 -0.054588 -0.11167 0.12483 -0.19475 0.045691 -0.026473 0.0052169 0.023726 0.029069 -0.084955 0.039064 -0.026601 0.043736 -0.077715 0.10111 0.046968 0.035796 0.01621 -0.037676 -0.01901 -0.11037 0.016248 0.044428 -0.089861 0.10703 -0.1482 -0.023801 -0.14206 -0.026724 -0.069685 0.024151 -0.019692 0.032114 0.18668 0.032801 0.095228 0.11053 -0.090977 0.0081144 -0.063991 0.098965 0.043124 -0.051145 0.04893 -0.050769 0.11243 0.025343 0.019605 -0.075898 0.14603 0.083203 0.16993 -0.11045 0.15856 -0.034081 -0.011253 -0.0087033 0.020114 0.045413 0.026798 0.020882 -0.0072269 0.0053009 0.069852 0.090365 0.21856 -0.04178 -0.016274 -0.07009 -0.074555 0.10266 -0.031728 0.0049278 0.021952 -0.08855 0.11173 -0.050365 0.20981 0.12859 -0.038015 -0.096183 0.056512 0.035975 -0.15323 0.095543 -0.014106 0.13155 -0.12659 -0.037307 0.021711 0.024286 0.0067115 -0.042996 -0.086882 0.085806 -0.051223 -0.030098 -0.0034042 -0.0094234 0.07094 -0.054588 -0.11167 0.12483 -0.19475 0.045691 -0.026473 0.0052169 0.023726 0.029069 -0.084955 0.039064 -0.026601 0.043736 -0.077715 0.10111 0.046968 0.035796 0.01621 -0.037676 -0.01901 -0.11037 0.016248 0.044428 -0.089861 0.10703 -0.1482 -0.023801 -0.14206 -0.026724 -0.069685 0.024151 -0.019692 0.032114 0.18668 0.032801 0.095228 0.11053 -0.090977 0.0081144 -0.063991 0.098965 0.043124 -0.051145 0.04893 -0.050769 0.11243 0.025343 0.019605 -0.075898 0.14603 0.083203 0.16993 -0.11045 0.15856 -0.034081 -0.011253 -0.0087033 0.020114 0.045413 0.026798 0.020882 -0.0072269 0.0053009 0.069852 0.090365 0.21856 -0.04178 -0.016274 -0.07009 -0.074555 0.10266 -0.031728 0.0049278
hän 0.022842 -0.090871 0.11144 -0.050806 0.21017 0.13526 -0.037978 -0.0965 0.053844 0.037894 -0.15603 0.099381 -0.016307 0.13413 -0.12511 -0.037543 0.025692 0.026583 0.014889 -0.044983 -0.088331 0.085271 -0.05552 -0.026094 -0.00023259 -0.0090424 0.070792 -0.057483 -0.11488 0.12607 -0.1994 0.045357 -0.019504 0.0078181 0.024646 0.034426 -0.086756 0.0389 -0.028354 0.045187 -0.079774 0.10227 0.04512 0.033011 0.014798 -0.03607 -0.020245 -0.11838 0.015229 0.044074 -0.090535 0.10669 -0.1575 -0.022458 -0.14049 -0.027873 -0.07237 0.019078 -0.021239 0.035371 0.19237 0.033988 0.096354 0.11463 -0.089432 0.0078448 -0.064894 0.10085 0.04061 -0.050804 0.050711 -0.049393 0.11511 0.028518 0.022502 -0.081022 0.1509 0.088116 0.17187 -0.11209 0.16002 -0.034078 -0.007338 -0.0043919 0.018901 0.041736 0.026558 0.022682 -0.0088155 0.0048424 0.070932 0.090082 0.22673 -0.040935 -0.021699 -0.072434 -0.070195 0.1052 -0.034276 0.006168 0.022842 -0.090871 0.11144 -0.050806 0.21017 0.13526 -0.037978 -0.0965 0.053844 0.037894 -0.15603 0.099381 -0.016307 0.13413 -0.12511 -0.037543 0.025692 0.026583 0.014889 -0.044983 -0.088331 0.085271 -0.05552 -0.026094 -0.00023259 -0.0090424 0.070792 -0.057483 -0.11488 0.12607 -0.1994 0.045357 -0.019504 0.0078181 0.024646 0.034426 -0.086756 0.0389 -0.028354 0.045187 -0.079774 0.10227 0.04512 0.033011 0.014798 -0.03607 -0.020245 -0.11838 0.015229 0.044074 -0.090535 0.10669 -0.1575 -0.022458 -0.14049 -0.027873 -0.07237 0.019078 -0.021239 0.035371 0.19237 0.033988 0.096354 0.11463 -0.089432 0.0078448 -0.064894 0.10085 0.04061 -0.050804 0.050711 -0.049393 0.11511 0.028518 0.022502 -0.081022 0.1509 0.088116 0.17187 -0.11209 0.16002 -0.034078 -0.007338 -0.0043919 0.018901 0.041736 0.026558 0.022682 -0.0088155 0.0048424 0.070932 0.090082 0.22673 -0.040935 -0.021699 -0.072434 -0.070195 0.1052 -0.034276 0.006168
esim. 0.0059688 -0.028168 0.033577 -0.017107 0.065929 0.040817 -0.011444 -0.029959 0.015166 0.013892 -0.045996 0.033082 -0.0039657 0.039813 -0.044495 -0.009645 0.0054227 0.0055576 0.0038723 -0.014453 -0.024202 0.024457 -0.016519 -0.0096127 -0.00088627 -0.0023991 0.023046 -0.0191 -0.034015 0.039765 -0.060448 0.014103 -0.0060739 -0.001286 0.0079715 0.0083378 -0.025906 0.0091941 -0.0094913 0.015359 -0.027033 0.031825 0.015855 0.011607 0.004033 -0.011919 -0.0083108 -0.034896 0.004178 0.011792 -0.027772 0.033868 -0.047723 -0.0094564 -0.045637 -0.01131 -0.024521 0.0099352 -0.0065785 0.012989 0.059104 0.0084613 0.027643 0.032686 -0.028414 0.0049669 -0.021438 0.031968 0.011569 -0.015635 0.014824 -0.013983 0.03264 0.0086018 0.0065841 -0.022968 0.047589 0.026905 0.051116 -0.032155 0.050554 -0.0074733 -0.0013189 -0.0036549 0.0081424 0.013981 0.0090066 0.0061321 -0.0038447 0.0041988 0.021403 0.02809 0.067394 -0.0098893 -0.0061482 -0.023005 -0.023785 0.031016 -0.0073001 -0.0011497 0.0059688 -0.028168 0.033577 -0.017107 0.065929 0.040817 -0.011444 -0.029959 0.015166 0.013892 -0.045996 0.033082 -0.0039657 0.039813 -0.044495 -0.009645 0.0054227 0.0055576 0.0038723 -0.014453 -0.024202 0.024457 -0.016519 -0.0096127 -0.00088627 -0.0023991 0.023046 -0.0191 -0.034015 0.039765 -0.060448 0.014103 -0.0060739 -0.001286 0.0079715 0.0083378 -0.025906 0.0091941 -0.0094913 0.015359 -0.027033 0.031825 0.015855 0.011607 0.004033 -0.011919 -0.0083108 -0.034896 0.004178 0.011792 -0.027772 0.033868 -0.047723 -0.0094564 -0.045637 -0.01131 -0.024521 0.0099352 -0.0065785 0.012989 0.059104 0.0084613 0.027643 0.032686 -0.028414 0.0049669 -0.021438 0.031968 0.011569 -0.015635 0.014824 -0.013983 0.03264 0.0086018 0.0065841 -0.022968 0.047589 0.026905 0.051116 -0.032155 0.050554 -0.0074733 -0.0013189 -0.0036549 0.0081424 0.013981 0.0090066 0.0061321 -0.0038447 0.0041988 0.021403 0.02809 0.067394 -0.0098893 -0.0061482 -0.023005 -0.023785 0.031016 -0.0073001 -0.0011497
jossa 0.014548 -0.059019 0.071926 -0.034374 0.14214 0.087568 -0.025366 -0.064613 0.03725 0.024487 -0.099397 0.06638 -0.0074787 0.088117 -0.082914 -0.026426 0.015409 0.017326 0.0048449 -0.028741 -0.056335 0.05745 -0.032219 -0.020203 -0.00098055 -0.0075534 0.048143 -0.035823 -0.076585 0.086497 -0.13132 0.028304 -0.017926 0.004895 0.01791 0.018762 -0.05828 0.027971 -0.016834 0.027696 -0.052552 0.066991 0.032465 0.020411 0.009978 -0.025665 -0.011531 -0.077586 0.012537 0.02915 -0.0549 0.069172 -0.099359 -0.018047 -0.096126 -0.014933 -0.046836 0.01109 -0.013422 0.017183 0.12761 0.022024 0.05975 0.076306 -0.059388 0.0061449 -0.04402 0.064649 0.029061 -0.037514 0.031758 -0.032707 0.075262 0.017073 0.011229 -0.051492 0.10065 0.056818 0.11138 -0.07396 0.10268 -0.021918 -0.0047781 -0.002965 0.0094183 0.032274 0.015205 0.016971 -0.0044673 0.0052162 0.047051 0.06247 0.14794 -0.025271 -0.011554 -0.045446 -0.049768 0.068366 -0.020793 0.0036475 0.014548 -0.059019 0.071926 -0.034374 0.14214 0.087568 -0.025366 -0.064613 0.03725 0.024487 -0.099397 0.06638 -0.0074787 0.088117 -0.082914 -0.026426 0.015409 0.017326 0.0048449 -0.028741 -0.056335 0.05745 -0.032219 -0.020203 -0.00098055 -0.0075534 0.048143 -0.035823 -0.076585 0.086497 -0.13132 0.028304 -0.017926 0.004895 0.01791 0.018762 -0.05828 0.027971 -0.016834 0.027696 -0.052552 0.066991 0.032465 0.020411 0.009978 -0.025665 -0.011531 -0.077586 0.012537 0.02915 -0.0549 0.069172 -0.099359 -0.018047 -0.096126 -0.014933 -0.046836 0.01109 -0.013422 0.017183 0.12761 0.022024 0.05975 0.076306 -0.059388 0.0061449 -0.04402 0.064649 0.029061 -0.037514 0.031758 -0.032707 0.075262 0.017073 0.011229 -0.051492 0.10065 0.056818 0.11138 -0.07396 0.10268 -0.021918 -0.0047781 -0.002965 0.0094183 0.032274 0.015205 0.016971 -0.0044673 0.0052162 0.047051 0.06247 0.14794 -0.025271 -0.011554 -0.045446 -0.049768 0.068366 -0.020793 0.0036475
ole 0.012533 -0.055085 0.068361 -0.033112 0.1325 0.082697 -0.022129 -0.061041 0.032011 0.024687 -0.094099 0.058357 -0.012791 0.079323 -0.078296 -0.024736 0.011568 0.014632 0.0030955 -0.025808 -0.055284 0.054378 -0.029584 -0.017919 -0.0037353 -0.0067545 0.042616 -0.039838 -0.070422 0.078298 -0.1219 0.027485 -0.016215 0.0035573 0.011617 0.020472 -0.053649 0.020176 -0.016394 0.024723 -0.047761 0.062347 0.0313 0.023155 0.012361 -0.024842 -0.014223 -0.068576 0.013472 0.025793 -0.052776 0.066322 -0.092168 -0.014623 -0.087747 -0.015474 -0.049035 0.013828 -0.010104 0.02092 0.1197 0.018652 0.059526 0.070762 -0.058304 0.0084892 -0.039585 0.058164 0.023196 -0.03069 0.033786 -0.033436 0.06923 0.015971 0.016115 -0.042892 0.094049 0.053099 0.1051 -0.069161 0.09924 -0.020749 -0.0074936 -0.0052233 0.014126 0.029604 0.019578 0.014827 -0.0080016 0.0031215 0.047526 0.058134 0.13644 -0.022374 -0.011852 -0.045101 -0.042758 0.060309 -0.020169 0.004659 0.012533 -0.055085 0.068361 -0.033112 0.1325 0.082697 -0.022129 -0.061041 0.032011 0.024687 -0.094099 0.058357 -0.012791 0.079323 -0.078296 -0.024736 0.011568 0.014632 0.0030955 -0.025808 -0.055284 0.054378 -0.029584 -0.017919 -0.0037353 -0.0067545 0.042616 -0.039838 -0.070422 0.078298 -0.1219 0.027485 -0.016215 0.0035573 0.011617 0.020472 -0.053649 0.020176 -0.016394 0.024723 -0.047761 0.062347 0.0313 0.023155 0.012361 -0.024842 -0.014223 -0.068576 0.013472 0.025793 -0.052776 0.066322 -0.092168 -0.014623 -0.087747 -0.015474 -0.049035 0.013828 -0.010104 0.02092 0.1197 0.018652 0.059526 0.070762 -0.058304 0.0084892 -0.039585 0.058164 0.023196 -0.03069 0.033786 -0.033436 0.06923 0.015971 0.016115 -0.042892 0.094049 0.053099 0.1051 -0.069161 0.09924 -0.020749 -0.0074936 -0.0052233 0.014126 0.029604 0.019578 0.014827 -0.0080016 0.0031215 0.047526 0.058134 0.13644 -0.022374 -0.011852 -0.045101 -0.042758 0.060309 -0.020169 0.004659
voisi 0.015539 -0.055539 0.068739 -0.02857 0.133 0.081589 -0.021855 -0.061052 0.030384 0.022512 -0.09744 0.059821 -0.0062835 0.083056 -0.079537 -0.023203 0.011497 0.016471 0.0056514 -0.027942 -0.050424 0.054271 -0.031338 -0.01626 -0.0014199 -0.0064434 0.046865 -0.034473 -0.069131 0.077725 -0.12453 0.02831 -0.016626 0.0025307 0.01339 0.020015 -0.05058 0.025981 -0.016095 0.03157 -0.049127 0.062109 0.027987 0.020166 0.011972 -0.025926 -0.013698 -0.069531 0.012408 0.027168 -0.056441 0.063393 -0.090653 -0.016992 -0.091128 -0.01915 -0.042525 0.014264 -0.013861 0.019025 0.11759 0.017858 0.059915 0.069196 -0.05454 0.0072896 -0.037373 0.060596 0.026219 -0.032785 0.032271 -0.033725 0.071786 0.016356 0.0093173 -0.048008 0.092519 0.04888 0.10972 -0.071238 0.099778 -0.023305 -0.0069537 -0.0050624 0.012089 0.028563 0.015514 0.013846 -0.0028028 0.0057902 0.044793 0.057083 0.13627 -0.027385 -0.0088291 -0.041398 -0.04591 0.066246 -0.019833 0.0030958 0.015539 -0.055539 0.068739 -0.02857 0.133 0.081589 -0.021855 -0.061052 0.030384 0.022512 -0.09744 0.059821 -0.0062835 0.083056 -0.079537 -0.023203 0.011497 0.016471 0.0056514 -0.027942 -0.050424 0.054271 -0.031338 -0.01626 -0.0014199 -0.0064434 0.046865 -0.034473 -0.069131 0.077725 -0.12453 0.02831 -0.016626 0.0025307 0.01339 0.020015 -0.05058 0.025981 -0.016095 0.03157 -0.049127 0.062109 0.027987 0.020166 0.011972 -0.025926 -0.013698 -0.069531 0.012408 0.027168 -0.056441 0.063393 -0.090653 -0.016992 -0.091128 -0.01915 -0.042525 0.014264 -0.013861 0.019025 0.11759 0.017858 0.059915 0.069196 -0.05454 0.0072896 -0.037373 0.060596 0.026219 -0.032785 0.032271 -0.033725 0.071786 0.016356 0.0093173 -0.048008 0.092519 0.04888 0.10972 -0.071238 0.099778 -0.023305 -0.0069537 -0.0050624 0.012089 0.028563 0.015514 0.013846 -0.0028028 0.0057902 0.044793 0.057083 0.13627 -0.027385 -0.0088291 -0.041398 -0.04591 0.066246 -0.019833 0.0030958
sekä 0.0064665 -0.035459 0.043643 -0.019679 0.078199 0.050317 -0.013122 -0.035401 0.019834 0.010984 -0.056615 0.039064 -0.0065839 0.046361 -0.049765 -0.01653 0.0086677 0.0084538 0.0014312 -0.013861 -0.034647 0.032192 -0.021524 -0.0094648 -0.0014785 -0.0024149 0.026434 -0.022758 -0.041065 0.047477 -0.075915 0.021669 -0.011907 0.00052404 0.0068706 0.010016 -0.032115 0.013931 -0.010682 0.018133 -0.028607 0.037562 0.016879 0.014898 0.0066299 -0.013991 -0.0079915 -0.041279 0.007605 0.019001 -0.032934 0.042063 -0.056286 -0.010365 -0.053276 -0.011145 -0.02552 0.0080113 -0.0053202 0.014944 0.069435 0.013652 0.035534 0.0396 -0.035642 0.0035124 -0.027282 0.042103 0.014046 -0.021016 0.017587 -0.021005 0.041829 0.0074701 0.0087821 -0.029681 0.056049 0.032303 0.063662 -0.044535 0.060721 -0.014207 -0.0056377 -0.0011729 0.0059615 0.016417 0.0067618 0.0088804 -0.0069848 0.0016759 0.027864 0.035448 0.084172 -0.015561 -0.0067025 -0.02585 -0.029743 0.044476 -0.013426 0.0026406 0.0064665 -0.035459 0.043643 -0.019679 0.078199 0.050317 -0.013122 -0.035401 0.019834 0.010984 -0.056615 0.039064 -0.0065839 0.046361 -0.049765 -0.01653 0.0086677 0.0084538 0.0014312 -0.013861 -0.034647 0.032192 -0.021524 -0.0094648 -0.0014785 -0.0024149 0.026434 -0.022758 -0.041065 0.047477 -0.075915 0.021669 -0.011907 0.00052404 0.0068706 0.010016 -0.032115 0.013931 -0.010682 0.018133 -0.028607 0.037562 0.016879 0.014898 0.0066299 -0.013991 -0.0079915 -0.041279 0.007605 0.019001 -0.032934 0.042063 -0.056286 -0.010365 -0.053276 -0.011145 -0.02552 0.0080113 -0.0053202 0.014944 0.069435 0.013652 0.035534 0.0396 -0.035642 0.0035124 -0.027282 0.042103 0.014046 -0.021016 0.017587 -0.021005 0.041829 0.0074701 0.0087821 -0.029681 0.056049 0.032303 0.063662 -0.044535 0.060721 -0.014207 -0.0056377 -0.0011729 0.0059615 0.016417 0.0067618 0.0088804 -0.0069848 0.0016759 0.027864 0.035448 0.084172 -0.015561 -0.0067025 -0.02585 -0.029743 0.044476 -0.013426 0.0026406
mm. 0.001095 -0.022328 0.030733 -0.012165 0.05605 0.032712 -0.010179 -0.023852 0.01228 0.0089051 -0.03903 0.026063 -0.0035077 0.035419 -0.030494 -0.014584 0.0062204 0.0089574 0.00043708 -0.0093318 -0.020327 0.022014 -0.015707 -0.0067107 -0.0042047 0.0011678 0.019066 -0.011653 -0.026747 0.033329 -0.049251 0.01075 -0.0050256 -0.0013789 0.0065973 0.0033429 -0.020741 0.010815 -0.0049696 0.013492 -0.020822 0.024083 0.010687 0.011821 0.0031791 -0.0093343 -0.010267 -0.027809 0.0048784 0.01131 -0.020525 0.027478 -0.036368 -0.0045232 -0.036599 -0.0099184 -0.018594 0.0047773 -0.0055239 0.0075107 0.051145 0.0081618 0.024778 0.031997 -0.023486 0.0059838 -0.01691 0.021769 0.011415 -0.01597 0.011477 -0.013421 0.030348 0.0053156 0.004467 -0.018001 0.040524 0.018154 0.040906 -0.024405 0.040958 -0.0047173 -0.0032885 -9.6627e-05 0.0038499 0.013326 0.0067198 0.005142 0.0015851 0.0015917 0.015137 0.02198 0.053283 -0.010409 -0.0074544 -0.016864 -0.018567 0.024697 -0.005001 -0.0017142 0.001095 -0.022328 0.030733 -0.012165 0.05605 0.032712 -0.010179 -0.023852 0.01228 0.0089051 -0.03903 0.026063 -0.0035077 0.035419 -0.030494 -0.014584 0.0062204 0.0089574 0.00043708 -0.0093318 -0.020327 0.022014 -0.015707 -0.0067107 -0.0042047 0.0011678 0.019066 -0.011653 -0.026747 0.033329 -0.049251 0.01075 -0.0050256 -0.0013789 0.0065973 0.0033429 -0.020741 0.010815 -0.0049696 0.013492 -0.020822 0.024083 0.010687 0.011821 0.0031791 -0.0093343 -0.010267 -0.027809 0.0048784 0.01131 -0.020525 0.027478 -0.036368 -0.0045232 -0.036599 -0.0099184 -0.018594 0.0047773 -0.0055239 0.0075107 0.051145 0.0081618 0.024778 0.031997 -0.023486 0.0059838 -0.01691 0.021769 0.011415 -0.01597 0.011477 -0.013421 0.030348 0.0053156 0.004467 -0.018001 0.040524 0.018154 0.040906 -0.024405 0.040958 -0.0047173 -0.0032885 -9.6627e-05 0.0038499 0.013326 0.0067198 0.005142 0.0015851 0.0015917 0.015137 0.02198 0.053283 -0.010409 -0.0074544 -0.016864 -0.018567 0.024697 -0.005001 -0.0017142
was 0.029606 -0.11875 0.14057 -0.068282 0.27942 0.17582 -0.048098 -0.13571 0.071548 0.047529 -0.20378 0.12372 -0.023505 0.17804 -0.16897 -0.048436 0.025979 0.034385 0.0083417 -0.06196 -0.11095 0.11544 -0.070282 -0.03897 0.005955 -0.020303 0.095617 -0.074815 -0.14191 0.17463 -0.25912 0.062701 -0.049261 0.0054214 0.032427 0.032227 -0.12253 0.052038 -0.028591 0.053746 -0.10692 0.12436 0.060584 0.044259 0.015968 -0.042333 -0.023886 -0.14313 0.032546 0.055293 -0.11747 0.14281 -0.19964 -0.034778 -0.1868 -0.03725 -0.082911 0.032689 -0.024565 0.046521 0.24428 0.042605 0.11949 0.1493 -0.12867 0.016453 -0.084571 0.13103 0.064525 -0.060911 0.064273 -0.063451 0.14763 0.030357 0.01639 -0.10668 0.19725 0.11002 0.22633 -0.15901 0.21062 -0.050938 -0.023726 -0.013819 0.014124 0.055044 0.022248 0.024275 -0.014421 0.0067704 0.093371 0.12689 0.29411 -0.061442 -0.026915 -0.094206 -0.10602 0.14307 -0.042423 0.008236 0.029606 -0.11875 0.14057 -0.068282 0.27942 0.17582 -0.048098 -0.13571 0.071548 0.047529 -0.20378 0.12372 -0.023505 0.17804 -0.16897 -0.048436 0.025979 0.034385 0.0083417 -0.06196 -0.11095 0.11544 -0.070282 -0.03897 0.005955 -0.020303 0.095617 -0.074815 -0.14191 0.17463 -0.25912 0.062701 -0.049261 0.0054214 0.032427 0.032227 -0.12253 0.052038 -0.028591 0.053746 -0.10692 0.12436 0.060584 0.044259 0.015968 -0.042333 -0.023886 -0.14313 0.032546 0.055293 -0.11747 0.14281 -0.19964 -0.034778 -0.1868 -0.03725 -0.082911 0.032689 -0.024565 0.046521 0.24428 0.042605 0.11949 0.1493 -0.12867 0.016453 -0.084571 0.13103 0.064525 -0.060911 0.064273 -0.063451 0.14763 0.030357 0.01639 -0.10668 0.19725 0.11002 0.22633 -0.15901 0.21062 -0.050938 -0.023726 -0.013819 0.014124 0.055044 0.022248 0.024275 -0.014421 0.0067704 0.093371 0.12689 0.29411 -0.061442 -0.026915 -0.094206 -0.10602 0.14307 -0.042423 0.008236
sen 0.012807 -0.055815 0.0629 -0.028157 0.12324 0.075001 -0.023463 -0.054293 0.031889 0.016765 -0.087722 0.056811 -0.0091476 0.07395 -0.075001 -0.021197 0.012297 0.014735 0.0048545 -0.028227 -0.051037 0.049106 -0.02998 -0.01536 0.00028814 -0.0048759 0.039901 -0.035842 -0.061751 0.073034 -0.11228 0.027204 -0.017353 0.005307 0.017691 0.017749 -0.050635 0.02122 -0.019763 0.026507 -0.043074 0.05691 0.029229 0.02028 0.0066893 -0.020291 -0.011335 -0.064793 0.0096083 0.022134 -0.052438 0.060904 -0.088037 -0.01169 -0.081559 -0.018022 -0.037993 0.015518 -0.0088988 0.01807 0.1076 0.022474 0.055158 0.064071 -0.055099 0.0025789 -0.037498 0.061313 0.023021 -0.029066 0.028868 -0.028229 0.068594 0.015349 0.0085561 -0.045392 0.083388 0.053483 0.09783 -0.066142 0.093788 -0.019145 -0.0059517 -0.0058136 0.0099137 0.02653 0.0156 0.01791 -0.0015368 0.0022798 0.041058 0.052529 0.12417 -0.024733 -0.0095641 -0.04148 -0.041794 0.065413 -0.020051 0.0047232 0.012807 -0.055815 0.0629 -0.028157 0.12324 0.075001 -0.023463 -0.054293 0.031889 0.016765 -0.087722 0.056811 -0.0091476 0.07395 -0.075001 -0.021197 0.012297 0.014735 0.0048545 -0.028227 -0.051037 0.049106 -0.02998 -0.01536 0.00028814 -0.0048759 0.039901 -0.035842 -0.061751 0.073034 -0.11228 0.027204 -0.017353 0.005307 0.017691 0.017749 -0.050635 0.02122 -0.019763 0.026507 -0.043074 0.05691 0.029229 0.02028 0.0066893 -0.020291 -0.011335 -0.064793 0.0096083 0.022134 -0.052438 0.060904 -0.088037 -0.01169 -0.081559 -0.018022 -0.037993 0.015518 -0.0088988 0.01807 0.1076 0.022474 0.055158 0.064071 -0.055099 0.0025789 -0.037498 0.061313 0.023021 -0.029066 0.028868 -0.028229 0.068594 0.015349 0.0085561 -0.045392 0.083388 0.053483 0.09783 -0.066142 0.093788 -0.019145 -0.0059517 -0.0058136 0.0099137 0.02653 0.0156 0.01791 -0.0015368 0.0022798 0.041058 0.052529 0.12417 -0.024733 -0.0095641 -0.04148 -0.041794 0.065413 -0.020051 0.0047232
Antiikin 0.025433 -0.096184 0.11738 -0.056969 0.22784 0.14204 -0.039301 -0.10638 0.060936 0.040976 -0.16547 0.10356 -0.012378 0.14238 -0.13468 -0.041315 0.023609 0.02679 0.0083725 -0.048388 -0.093588 0.092549 -0.053938 -0.03209 -0.0038006 -0.01164 0.078807 -0.061227 -0.12162 0.1377 -0.21404 0.0505 -0.026842 0.0062573 0.028411 0.031648 -0.091621 0.043976 -0.029453 0.048987 -0.085204 0.1097 0.050216 0.038821 0.017552 -0.041248 -0.02091 -0.12028 0.018777 0.046406 -0.096203 0.11647 -0.16134 -0.027347 -0.1528 -0.030883 -0.077625 0.023964 -0.021691 0.03442 0.204 0.034298 0.10285 0.12002 -0.098524 0.010419 -0.070896 0.10723 0.047441 -0.056465 0.051613 -0.05504 0.12227 0.028049 0.017445 -0.082782 0.15821 0.089464 0.18445 -0.12069 0.17286 -0.036165 -0.011756 -0.009152 0.017958 0.047433 0.031336 0.021992 -0.0072411 0.0059203 0.07746 0.10064 0.23729 -0.044877 -0.017089 -0.077029 -0.08112 0.11363 -0.038138 0.0085884 0.025433 -0.096184 0.11738 -0.056969 0.22784 0.14204 -0.039301 -0.10638 0.060936 0.040976 -0.16547 0.10356 -0.012378 0.14238 -0.13468 -0.041315 0.023609 0.02679 0.0083725 -0.048388 -0.093588 0.092549 -0.053938 -0.03209 -0.0038006 -0.01164 0.078807 -0.061227 -0.12162 0.1377 -0.21404 0.0505 -0.026842 0.0062573 0.028411 0.031648 -0.091621 0.043976 -0.029453 0.048987 -0.085204 0.1097 0.050216 0.038821 0.017552 -0.041248 -0.02091 -0.12028 0.018777 0.046406 -0.096203 0.11647 -0.16134 -0.027347 -0.1528 -0.030883 -0.077625 0.023964 -0.021691 0.03442 0.204 0.034298 0.10285 0.12002 -0.098524 0.010419 -0.070896 0.10723 0.047441 -0.056465 0.051613 -0.05504 0.12227 0.028049 0.017445 -0.082782 0.15821 0.089464 0.18445 -0.12069 0.17286 -0.036165 -0.011756 -0.009152 0.017958 0.047433 0.031336 0.021992 -0.0072411 0.0059203 0.07746 0.10064 0.23729 -0.044877 -0.017089 -0.077029 -0.08112 0.11363 -0.038138 0.0085884
voi 0.012357 -0.066996 0.083146 -0.037472 0.14875 0.094449 -0.025678 -0.067357 0.037947 0.027679 -0.10794 0.069011 -0.0079022 0.095564 -0.087618 -0.024901 0.016997 0.017795 0.0057544 -0.032194 -0.061546 0.060836 -0.030226 -0.021478 -0.00084916 -0.0061304 0.050386 -0.042298 -0.080351 0.088201 -0.14058 0.034405 -0.0166 0.0053101 0.016307 0.023994 -0.057659 0.024981 -0.020576 0.031583 -0.052314 0.071464 0.031899 0.021426 0.011213 -0.026025 -0.014092 -0.07972 0.015006 0.033119 -0.060418 0.073861 -0.10718 -0.016161 -0.10425 -0.018225 -0.047661 0.017503 -0.014382 0.021433 0.13165 0.02004 0.068991 0.074588 -0.060855 0.0051968 -0.042455 0.072489 0.032034 -0.038104 0.035525 -0.037371 0.078393 0.016156 0.011766 -0.05527 0.10558 0.052885 0.12195 -0.077119 0.11145 -0.021923 -0.0051359 -0.0038928 0.01217 0.031962 0.019715 0.01507 -0.0053346 0.0036071 0.049984 0.062381 0.15603 -0.031194 -0.01455 -0.05123 -0.052534 0.070865 -0.021652 0.0041482 0.012357 -0.066996 0.083146 -0.037472 0.14875 0.094449 -0.025678 -0.067357 0.037947 0.027679 -0.10794 0.069011 -0.0079022 0.095564 -0.087618 -0.024901 0.016997 0.017795 0.0057544 -0.032194 -0.061546 0.060836 -0.030226 -0.021478 -0.00084916 -0.0061304 0.050386 -0.042298 -0.080351 0.088201 -0.14058 0.034405 -0.0166 0.0053101 0.016307 0.023994 -0.057659 0.024981 -0.020576 0.031583 -0.052314 0.071464 0.031899 0.021426 0.011213 -0.026025 -0.014092 -0.07972 0.015006 0.033119 -0.060418 0.073861 -0.10718 -0.016161 -0.10425 -0.018225 -0.047661 0.017503 -0.014382 0.021433 0.13165 0.02004 0.068991 0.074588 -0.060855 0.0051968 -0.042455 0.072489 0.032034 -0.038104 0.035525 -0.037371 0.078393 0.016156 0.011766 -0.05527 0.10558 0.052885 0.12195 -0.077119 0.11145 -0.021923 -0.0051359 -0.0038928 0.01217 0.031962 0.019715 0.01507 -0.0053346 0.0036071 0.049984 0.062381 0.15603 -0.031194 -0.01455 -0.05123 -0.052534 0.070865 -0.021652 0.0041482
en 0.012123 -0.049502 0.056649 -0.02778 0.10665 0.071304 -0.016943 -0.045367 0.028493 0.019251 -0.083026 0.053754 -0.010328 0.072168 -0.069679 -0.023629 0.012106 0.012688 -0.00087405 -0.024198 -0.040789 0.04696 -0.032511 -0.014895 0.0027974 -0.0065367 0.036753 -0.027469 -0.057508 0.065604 -0.10242 0.027457 -0.01663 0.0047195 0.01636 0.017603 -0.043072 0.022 -0.015487 0.026206 -0.043859 0.054125 0.021082 0.023874 0.011128 -0.016502 -0.013064 -0.060925 0.0062939 0.024286 -0.048602 0.054826 -0.082986 -0.014485 -0.075973 -0.01656 -0.043385 0.014341 -0.013173 0.020632 0.099289 0.018163 0.048693 0.05374 -0.046929 0.0007159 -0.029475 0.057262 0.028674 -0.033964 0.023533 -0.023047 0.061171 0.015695 0.0091744 -0.04165 0.080895 0.040705 0.091517 -0.060351 0.080132 -0.02341 -0.0084601 -0.00051711 0.0092369 0.023259 0.017185 0.014205 -0.00085411 0.0031885 0.040413 0.052599 0.11659 -0.022552 -0.012863 -0.039735 -0.041929 0.05886 -0.011028 0.0045259 0.012123 -0.049502 0.056649 -0.02778 0.10665 0.071304 -0.016943 -0.045367 0.028493 0.019251 -0.083026 0.053754 -0.010328 0.072168 -0.069679 -0.023629 0.012106 0.012688 -0.00087405 -0.024198 -0.040789 0.04696 -0.032511 -0.014895 0.0027974 -0.0065367 0.036753 -0.027469 -0.057508 0.065604 -0.10242 0.027457 -0.01663 0.0047195 0.01636 0.017603 -0.043072 0.022 -0.015487 0.026206 -0.043859 0.054125 0.021082 0.023874 0.011128 -0.016502 -0.013064 -0.060925 0.0062939 0.024286 -0.048602 0.054826 -0.082986 -0.014485 -0.075973 -0.01656 -0.043385 0.014341 -0.013173 0.020632 0.099289 0.018163 0.048693 0.05374 -0.046929 0.0007159 -0.029475 0.057262 0.028674 -0.033964 0.023533 -0.023047 0.061171 0.015695 0.0091744 -0.04165 0.080895 0.040705 0.091517 -0.060351 0.080132 -0.02341 -0.0084601 -0.00051711 0.0092369 0.023259 0.017185 0.014205 -0.00085411 0.0031885 0.040413 0.052599 0.11659 -0.022552 -0.012863 -0.039735 -0.041929 0.05886 -0.011028 0.0045259
Kohonen, 0.0020488 -0.01067 0.014406 -0.006731 0.02689 0.016194 -0.0034689 -0.010696 0.0052558 0.0054012 -0.018332 0.010666 -0.0032617 0.015887 -0.015214 -0.0055002 0.0034779 0.0033997 0.0022946 -0.0049023 -0.0084826 0.0095338 -0.0074001 -0.0029731 0.0017395 -0.00071757 0.0089667 -0.0055348 -0.013761 0.015207 -0.025591 0.0047147 -0.0025261 -0.00018125 0.0034163 0.0018402 -0.008356 0.0042925 -0.004321 0.0050054 -0.010856 0.012759 0.0072606 0.0041093 0.0023342 -0.0051935 -0.0041077 -0.014574 0.0017038 0.0048947 -0.012321 0.012582 -0.018683 -0.0051909 -0.018785 -0.0045222 -0.010121 0.0011596 -0.0021065 0.0033524 0.024424 0.0013347 0.0115 0.014405 -0.0095833 0.00027656 -0.0072541 0.010466 0.0049493 -0.0054582 0.0040508 -0.003671 0.014494 0.0043683 0.0019772 -0.0092394 0.017139 0.0095168 0.020339 -0.01259 0.020285 -0.0065071 -0.00091231 8.987e-05 0.0039781 0.0056609 0.0053951 -0.00040749 -0.0029988 0.0012594 0.0080375 0.012364 0.027556 -0.0044536 0.00042875 -0.0081944 -0.0081632 0.012064 -0.0043634 0.00065185 0.0020488 -0.01067 0.014406 -0.006731 0.02689 0.016194 -0.0034689 -0.010696 0.0052558 0.0054012 -0.018332 0.010666 -0.0032617 0.015887 -0.015214 -0.0055002 0.0034779 0.0033997 0.0022946 -0.0049023 -0.0084826 0.0095338 -0.0074001 -0.0029731 0.0017395 -0.00071757 0.0089667 -0.0055348 -0.013761 0.015207 -0.025591 0.0047147 -0.0025261 -0.00018125 0.0034163 0.0018402 -0.008356 0.0042925 -0.004321 0.0050054 -0.010856 0.012759 0.0072606 0.0041093 0.0023342 -0.0051935 -0.0041077 -0.014574 0.0017038 0.0048947 -0.012321 0.012582 -0.018683 -0.0051909 -0.018785 -0.0045222 -0.010121 0.0011596 -0.0021065 0.0033524 0.024424 0.0013347 0.0115 0.014405 -0.0095833 0.00027656 -0.0072541 0.010466 0.0049493 -0.0054582 0.0040508 -0.003671 0.014494 0.0043683 0.0019772 -0.0092394 0.017139 0.0095168 0.020339 -0.01259 0.020285 -0.0065071 -0.00091231 8.987e-05 0.0039781 0.0056609 0.0053951 -0.00040749 -0.0029988 0.0012594 0.0080375 0.012364 0.027556 -0.0044536 0.00042875 -0.0081944 -0.0081632 0.012064 -0.0043634 0.00065185
Laila. 0.002624 -0.010921 0.014954 -0.0080634 0.025243 0.017849 -0.0057214 -0.010368 0.009389 0.0061814 -0.018868 0.012333 -0.0026439 0.017565 -0.014714 -0.0032765 0.0036223 0.0017251 -0.00092951 -0.0049854 -0.0096204 0.0090033 -0.0056967 -0.0040539 -0.0001296 0.00025771 0.0079603 -0.0058124 -0.015413 0.017745 -0.022785 0.0059059 -0.0046727 0.001441 0.0033368 0.004119 -0.0099466 0.0058595 -0.0033944 0.0059681 -0.01132 0.013731 0.004183 0.0024294 0.00080807 -0.0052352 -0.0027844 -0.014477 0.0019157 0.0062233 -0.011443 0.013304 -0.019078 -0.0041255 -0.018148 -0.0042625 -0.0090794 0.0034612 -0.00082241 0.0033463 0.021556 0.0049486 0.014772 0.013677 -0.013049 0.0032817 -0.006946 0.01374 0.0059796 -0.0071855 0.0053908 -0.0071882 0.014336 0.0016469 0.00041518 -0.0096374 0.018934 0.010645 0.021885 -0.016141 0.020809 -0.0031229 -0.001089 -0.00053609 0.003487 0.0067124 0.0050797 0.0019744 -0.0020285 0.0010179 0.0077367 0.01506 0.027668 -0.0055459 -0.00058744 -0.0098522 -0.010338 0.011275 -0.0057398 0.0015154 0.002624 -0.010921 0.014954 -0.0080634 0.025243 0.017849 -0.0057214 -0.010368 0.009389 0.0061814 -0.018868 0.012333 -0.0026439 0.017565 -0.014714 -0.0032765 0.0036223 0.0017251 -0.00092951 -0.0049854 -0.0096204 0.0090033 -0.0056967 -0.0040539 -0.0001296 0.00025771 0.0079603 -0.0058124 -0.015413 0.017745 -0.022785 0.0059059 -0.0046727 0.001441 0.0033368 0.004119 -0.0099466 0.0058595 -0.0033944 0.0059681 -0.01132 0.013731 0.004183 0.0024294 0.00080807 -0.0052352 -0.0027844 -0.014477 0.0019157 0.0062233 -0.011443 0.013304 -0.019078 -0.0041255 -0.018148 -0.0042625 -0.0090794 0.0034612 -0.00082241 0.0033463 0.021556 0.0049486 0.014772 0.013677 -0.013049 0.0032817 -0.006946 0.01374 0.0059796 -0.0071855 0.0053908 -0.0071882 0.014336 0.0016469 0.00041518 -0.0096374 0.018934 0.010645 0.021885 -0.016141 0.020809 -0.0031229 -0.001089 -0.00053609 0.003487 0.0067124 0.0050797 0.0019744 -0.0020285 0.0010179 0.0077367 0.01506 0.027668 -0.0055459 -0.00058744 -0.0098522 -0.010338 0.011275 -0.0057398 0.0015154
jonka 0.013072 -0.047076 0.059 -0.026566 0.10847 0.066434 -0.017235 -0.049574 0.029522 0.019372 -0.075774 0.049224 -0.0063196 0.066781 -0.063045 -0.019089 0.01094 0.013784 0.0053364 -0.023575 -0.04498 0.044778 -0.027492 -0.017417 -0.0033587 -0.0032603 0.034447 -0.028628 -0.057086 0.062999 -0.10076 0.022654 -0.015171 0.0017618 0.0086027 0.013777 -0.04226 0.020653 -0.01282 0.0226 -0.038752 0.05196 0.024693 0.017325 0.010504 -0.021355 -0.012859 -0.055449 0.01011 0.02322 -0.04359 0.054323 -0.075934 -0.01315 -0.074133 -0.017162 -0.034603 0.01336 -0.010504 0.014753 0.096551 0.016252 0.046325 0.056935 -0.048779 0.0048661 -0.033468 0.049714 0.022444 -0.02536 0.026966 -0.024639 0.058377 0.012506 0.0093925 -0.042827 0.07826 0.043298 0.087489 -0.056813 0.080224 -0.019145 -0.0059326 -0.0047802 0.011785 0.024582 0.014122 0.0089997 -0.003862 -0.00091529 0.036014 0.047525 0.1108 -0.019776 -0.0051214 -0.037177 -0.036776 0.053227 -0.018551 0.0021032 0.013072 -0.047076 0.059 -0.026566 0.10847 0.066434 -0.017235 -0.049574 0.029522 0.019372 -0.075774 0.049224 -0.0063196 0.066781 -0.063045 -0.019089 0.01094 0.013784 0.0053364 -0.023575 -0.04498 0.044778 -0.027492 -0.017417 -0.0033587 -0.0032603 0.034447 -0.028628 -0.057086 0.062999 -0.10076 0.022654 -0.015171 0.0017618 0.0086027 0.013777 -0.04226 0.020653 -0.01282 0.0226 -0.038752 0.05196 0.024693 0.017325 0.010504 -0.021355 -0.012859 -0.055449 0.01011 0.02322 -0.04359 0.054323 -0.075934 -0.01315 -0.074133 -0.017162 -0.034603 0.01336 -0.010504 0.014753 0.096551 0.016252 0.046325 0.056935 -0.048779 0.0048661 -0.033468 0.049714 0.022444 -0.02536 0.026966 -0.024639 0.058377 0.012506 0.0093925 -0.042827 0.07826 0.043298 0.087489 -0.056813 0.080224 -0.019145 -0.0059326 -0.0047802 0.011785 0.024582 0.014122 0.0089997 -0.003862 -0.00091529 0.036014 0.047525 0.1108 -0.019776 -0.0051214 -0.037177 -0.036776 0.053227 -0.018551 0.0021032
voit 0.011633 -0.043771 0.062358 -0.025781 0.11295 0.069979 -0.01886 -0.053564 0.028583 0.018579 -0.082238 0.0525 -0.0033949 0.066539 -0.065604 -0.024749 0.012213 0.01345 0.0083093 -0.023005 -0.042833 0.043165 -0.023284 -0.012891 0.0012802 -0.0044119 0.0397 -0.029443 -0.059128 0.062992 -0.10491 0.025322 -0.011262 0.0042322 0.013272 0.019382 -0.042199 0.019406 -0.014279 0.023629 -0.039464 0.055661 0.025056 0.017374 0.0091089 -0.02172 -0.012781 -0.058067 0.010979 0.023925 -0.045792 0.054528 -0.079433 -0.016364 -0.076125 -0.014715 -0.033943 0.013534 -0.011215 0.017326 0.097839 0.015129 0.051245 0.054721 -0.042349 0.0057889 -0.031714 0.05202 0.02473 -0.026691 0.023921 -0.029767 0.059815 0.011537 0.0091892 -0.040039 0.07894 0.04236 0.091567 -0.056102 0.083041 -0.019 -0.0029042 -0.0020686 0.010048 0.022281 0.012593 0.012066 -0.0038346 0.0040119 0.040378 0.04499 0.11431 -0.022709 -0.010023 -0.038035 -0.039486 0.056281 -0.014532 0.00027123 0.011633 -0.043771 0.062358 -0.025781 0.11295 0.069979 -0.01886 -0.053564 0.028583 0.018579 -0.082238 0.0525 -0.0033949 0.066539 -0.065604 -0.024749 0.012213 0.01345 0.0083093 -0.023005 -0.042833 0.043165 -0.023284 -0.012891 0.0012802 -0.0044119 0.0397 -0.029443 -0.059128 0.062992 -0.10491 0.025322 -0.011262 0.0042322 0.013272 0.019382 -0.042199 0.019406 -0.014279 0.023629 -0.039464 0.055661 0.025056 0.017374 0.0091089 -0.02172 -0.012781 -0.058067 0.010979 0.023925 -0.045792 0.054528 -0.079433 -0.016364 -0.076125 -0.014715 -0.033943 0.013534 -0.011215 0.017326 0.097839 0.015129 0.051245 0.054721 -0.042349 0.0057889 -0.031714 0.05202 0.02473 -0.026691 0.023921 -0.029767 0.059815 0.011537 0.0091892 -0.040039 0.07894 0.04236 0.091567 -0.056102 0.083041 -0.019 -0.0029042 -0.0020686 0.010048 0.022281 0.012593 0.012066 -0.0038346 0.0040119 0.040378 0.04499 0.11431 -0.022709 -0.010023 -0.038035 -0.039486 0.056281 -0.014532 0.00027123
Suomen 0.0070556 -0.032632 0.040888 -0.018724 0.077 0.048084 -0.015446 -0.036253 0.017494 0.012541 -0.055295 0.036063 -0.006059 0.049547 -0.046058 -0.014055 0.0081975 0.0072071 0.0050582 -0.013383 -0.030251 0.033003 -0.020337 -0.011045 -0.0031184 -0.0027799 0.029136 -0.020357 -0.041424 0.04516 -0.071402 0.018371 -0.0097801 0.0028267 0.0071345 0.0095298 -0.032791 0.013764 -0.011996 0.015274 -0.027524 0.037404 0.016871 0.012083 0.0049985 -0.013303 -0.0073172 -0.039841 0.0036961 0.015224 -0.033252 0.03894 -0.054578 -0.0095515 -0.052358 -0.011182 -0.026122 0.0070182 -0.007665 0.011417 0.0673 0.010864 0.035354 0.040794 -0.035235 0.0029607 -0.023578 0.034394 0.013206 -0.019816 0.016713 -0.018067 0.041154 0.0093601 0.0058444 -0.027357 0.052955 0.028051 0.063921 -0.038758 0.056705 -0.012892 -0.0026308 -0.0035065 0.0060683 0.015293 0.0092836 0.0076415 -0.0037774 0.00077107 0.025567 0.033734 0.080368 -0.015211 -0.0066213 -0.024538 -0.027554 0.03838 -0.01124 0.003561 0.0070556 -0.032632 0.040888 -0.018724 0.077 0.048084 -0.015446 -0.036253 0.017494 0.012541 -0.055295 0.036063 -0.006059 0.049547 -0.046058 -0.014055 0.0081975 0.0072071 0.0050582 -0.013383 -0.030251 0.033003 -0.020337 -0.011045 -0.0031184 -0.0027799 0.029136 -0.020357 -0.041424 0.04516 -0.071402 0.018371 -0.0097801 0.0028267 0.0071345 0.0095298 -0.032791 0.013764 -0.011996 0.015274 -0.027524 0.037404 0.016871 0.012083 0.0049985 -0.013303 -0.0073172 -0.039841 0.0036961 0.015224 -0.033252 0.03894 -0.054578 -0.0095515 -0.052358 -0.011182 -0.026122 0.0070182 -0.007665 0.011417 0.0673 0.010864 0.035354 0.040794 -0.035235 0.0029607 -0.023578 0.034394 0.013206 -0.019816 0.016713 -0.018067 0.041154 0.0093601 0.0058444 -0.027357 0.052955 0.028051 0.063921 -0.038758 0.056705 -0.012892 -0.0026308 -0.0035065 0.0060683 0.015293 0.0092836 0.0076415 -0.0037774 0.00077107 0.025567 0.033734 0.080368 -0.015211 -0.0066213 -0.024538 -0.027554 0.03838 -0.01124 0.003561
vuonna 0.0063606 -0.034653 0.043082 -0.019873 0.080558 0.049027 -0.012451 -0.037104 0.020023 0.012155 -0.058805 0.035734 -0.0073917 0.049859 -0.049055 -0.014027 0.0071541 0.0089794 0.0018267 -0.01592 -0.032573 0.03417 -0.018783 -0.010942 -0.0010935 -0.0031923 0.027685 -0.022068 -0.040763 0.049669 -0.075235 0.017117 -0.010031 0.0023202 0.0077773 0.012092 -0.031389 0.015637 -0.0096721 0.01413 -0.029088 0.041046 0.017541 0.016444 0.0086518 -0.017482 -0.0074343 -0.043049 0.00432 0.017011 -0.033327 0.038142 -0.056081 -0.0085184 -0.056575 -0.012002 -0.025507 0.0086643 -0.0074234 0.010496 0.070295 0.013424 0.035869 0.043549 -0.036922 0.0059106 -0.025491 0.039818 0.016411 -0.019404 0.017407 -0.019372 0.041156 0.0086392 0.0054203 -0.0307 0.055797 0.034215 0.067099 -0.042042 0.062037 -0.015422 -0.0025767 -0.003687 0.0049453 0.019436 0.009893 0.006968 -0.0025437 0.00084069 0.026897 0.034337 0.081793 -0.01722 -0.004746 -0.027234 -0.027216 0.039579 -0.014059 0.0009536 0.0063606 -0.034653 0.043082 -0.019873 0.080558 0.049027 -0.012451 -0.037104 0.020023 0.012155 -0.058805 0.035734 -0.0073917 0.049859 -0.049055 -0.014027 0.0071541 0.0089794 0.0018267 -0.01592 -0.032573 0.03417 -0.018783 -0.010942 -0.0010935 -0.0031923 0.027685 -0.022068 -0.040763 0.049669 -0.075235 0.017117 -0.010031 0.0023202 0.0077773 0.012092 -0.031389 0.015637 -0.0096721 0.01413 -0.029088 0.041046 0.017541 0.016444 0.0086518 -0.017482 -0.0074343 -0.043049 0.00432 0.017011 -0.033327 0.038142 -0.056081 -0.0085184 -0.056575 -0.012002 -0.025507 0.0086643 -0.0074234 0.010496 0.070295 0.013424 0.035869 0.043549 -0.036922 0.0059106 -0.025491 0.039818 0.016411 -0.019404 0.017407 -0.019372 0.041156 0.0086392 0.0054203 -0.0307 0.055797 0.034215 0.067099 -0.042042 0.062037 -0.015422 -0.0025767 -0.003687 0.0049453 0.019436 0.009893 0.006968 -0.0025437 0.00084069 0.026897 0.034337 0.081793 -0.01722 -0.004746 -0.027234 -0.027216 0.039579 -0.014059 0.0009536
Volter 0.0070396 -0.032699 0.0389 -0.017967 0.076748 0.049591 -0.014312 -0.036488 0.021052 0.014825 -0.054204 0.034852 -0.0038235 0.048578 -0.043777 -0.013696 0.0077441 0.0078603 0.0032228 -0.014361 -0.031952 0.028904 -0.015423 -0.0099229 -0.00068524 -0.0019057 0.027313 -0.020453 -0.040598 0.045072 -0.069847 0.016847 -0.0093172 0.0032204 0.0090484 0.011751 -0.030812 0.01434 -0.0085084 0.016846 -0.030485 0.036301 0.016981 0.011158 0.0062458 -0.012699 -0.0077239 -0.03822 0.0097742 0.016251 -0.031248 0.039725 -0.052955 -0.010026 -0.051756 -0.012362 -0.026109 0.0096914 -0.0057201 0.010641 0.06582 0.012156 0.03254 0.040162 -0.03187 0.0045179 -0.021382 0.035482 0.013901 -0.019359 0.017788 -0.015636 0.038467 0.0090315 0.004609 -0.027353 0.052862 0.029507 0.058724 -0.04076 0.0569 -0.011143 -0.0039928 -0.0045947 0.0077183 0.015223 0.0081749 0.0065246 -0.0017284 0.0029033 0.023553 0.034554 0.07756 -0.016655 -0.005298 -0.026225 -0.027633 0.040214 -0.014055 0.0022826 0.0070396 -0.032699 0.0389 -0.017967 0.076748 0.049591 -0.014312 -0.036488 0.021052 0.014825 -0.054204 0.034852 -0.0038235 0.048578 -0.043777 -0.013696 0.0077441 0.0078603 0.0032228 -0.014361 -0.031952 0.028904 -0.015423 -0.0099229 -0.00068524 -0.0019057 0.027313 -0.020453 -0.040598 0.045072 -0.069847 0.016847 -0.0093172 0.0032204 0.0090484 0.011751 -0.030812 0.01434 -0.0085084 0.016846 -0.030485 0.036301 0.016981 0.011158 0.0062458 -0.012699 -0.0077239 -0.03822 0.0097742 0.016251 -0.031248 0.039725 -0.052955 -0.010026 -0.051756 -0.012362 -0.026109 0.0096914 -0.0057201 0.010641 0.06582 0.012156 0.03254 0.040162 -0.03187 0.0045179 -0.021382 0.035482 0.013901 -0.019359 0.017788 -0.015636 0.038467 0.0090315 0.004609 -0.027353 0.052862 0.029507 0.058724 -0.04076 0.0569 -0.011143 -0.0039928 -0.0045947 0.0077183 0.015223 0.0081749 0.0065246 -0.0017284 0.0029033 0.023553 0.034554 0.07756 -0.016655 -0.005298 -0.026225 -0.027633 0.040214 -0.014055 0.0022826
Kaksoset 0.0039254 -0.019254 0.022441 -0.0093821 0.041195 0.026443 -0.0066614 -0.018841 0.01054 0.0075366 -0.029647 0.021013 -0.0032034 0.028339 -0.024061 -0.0057269 0.0059495 0.0064933 0.0038003 -0.0077333 -0.018447 0.017817 -0.011863 -0.0060974 -0.0017924 -0.0025828 0.01473 -0.012937 -0.021714 0.026547 -0.041113 0.010384 -0.0048539 -0.00088744 0.0043644 0.0047501 -0.015952 0.0078601 -0.005762 0.0092123 -0.016629 0.020547 0.010917 0.0088525 0.0019209 -0.0061401 -0.0047953 -0.022804 0.0044329 0.0083238 -0.01835 0.020466 -0.031896 -0.0051387 -0.028915 -0.0043907 -0.014853 0.0047546 -0.0032769 0.0054588 0.03903 0.0062663 0.020403 0.023296 -0.020078 0.0011325 -0.013603 0.020724 0.0096676 -0.0099355 0.0060839 -0.009633 0.022815 0.004994 0.0030967 -0.014416 0.030389 0.016269 0.036501 -0.021684 0.033477 -0.0062308 -0.0027096 -0.0021588 0.0017775 0.0077192 0.0032225 0.0037715 -0.0033719 -8.6346e-05 0.015658 0.017508 0.045843 -0.0078816 -0.0037744 -0.013857 -0.016764 0.022292 -0.0062521 0.0020334 0.0039254 -0.019254 0.022441 -0.0093821 0.041195 0.026443 -0.0066614 -0.018841 0.01054 0.0075366 -0.029647 0.021013 -0.0032034 0.028339 -0.024061 -0.0057269 0.0059495 0.0064933 0.0038003 -0.0077333 -0.018447 0.017817 -0.011863 -0.0060974 -0.0017924 -0.0025828 0.01473 -0.012937 -0.021714 0.026547 -0.041113 0.010384 -0.0048539 -0.00088744 0.0043644 0.0047501 -0.015952 0.0078601 -0.005762 0.0092123 -0.016629 0.020547 0.010917 0.0088525 0.0019209 -0.0061401 -0.0047953 -0.022804 0.0044329 0.0083238 -0.01835 0.020466 -0.031896 -0.0051387 -0.028915 -0.0043907 -0.014853 0.0047546 -0.0032769 0.0054588 0.03903 0.0062663 0.020403 0.023296 -0.020078 0.0011325 -0.013603 0.020724 0.0096676 -0.0099355 0.0060839 -0.009633 0.022815 0.004994 0.0030967 -0.014416 0.030389 0.016269 0.036501 -0.021684 0.033477 -0.0062308 -0.0027096 -0.0021588 0.0017775 0.0077192 0.0032225 0.0037715 -0.0033719 -8.6346e-05 0.015658 0.017508 0.045843 -0.0078816 -0.0037744 -0.013857 -0.016764 0.022292 -0.0062521 0.0020334
Ristiinan 0.00531 -0.020671 0.023232 -0.0098686 0.047744 0.029445 -0.0074248 -0.021252 0.011848 0.0088433 -0.033258 0.021002 -0.0032043 0.028524 -0.026047 -0.0058464 0.0027244 0.0050822 0.0017398 -0.0096504 -0.019508 0.019482 -0.011868 -0.005269 -0.0011975 -0.0030132 0.015265 -0.011822 -0.024728 0.028296 -0.044344 0.010996 -0.0067817 0.0040383 0.0063194 0.0063466 -0.019492 0.0074247 -0.00665 0.010446 -0.016828 0.021961 0.010872 0.0081185 0.0030422 -0.010455 -0.00437 -0.025013 0.0035889 0.0097953 -0.019038 0.023476 -0.03403 -0.0055774 -0.033084 -0.005828 -0.016562 0.0058786 -0.0045923 0.0080531 0.041082 0.0071946 0.020606 0.024513 -0.018652 0.0014002 -0.014034 0.020438 0.0096344 -0.010978 0.011049 -0.012655 0.025378 0.005019 0.0025119 -0.016144 0.032034 0.018565 0.036892 -0.022669 0.034418 -0.007437 -0.00039808 -0.0023796 0.0060407 0.01063 0.0066321 0.0043087 -0.00053893 0.00068008 0.017025 0.021294 0.046095 -0.0081338 -0.0045169 -0.014937 -0.016521 0.022178 -0.0071624 0.001661 0.00531 -0.020671 0.023232 -0.0098686 0.047744 0.029445 -0.0074248 -0.021252 0.011848 0.0088433 -0.033258 0.021002 -0.0032043 0.028524 -0.026047 -0.0058464 0.0027244 0.0050822 0.0017398 -0.0096504 -0.019508 0.019482 -0.011868 -0.005269 -0.0011975 -0.0030132 0.015265 -0.011822 -0.024728 0.028296 -0.044344 0.010996 -0.0067817 0.0040383 0.0063194 0.0063466 -0.019492 0.0074247 -0.00665 0.010446 -0.016828 0.021961 0.010872 0.0081185 0.0030422 -0.010455 -0.00437 -0.025013 0.0035889 0.0097953 -0.019038 0.023476 -0.03403 -0.0055774 -0.033084 -0.005828 -0.016562 0.0058786 -0.0045923 0.0080531 0.041082 0.0071946 0.020606 0.024513 -0.018652 0.0014002 -0.014034 0.020438 0.0096344 -0.010978 0.011049 -0.012655 0.025378 0.005019 0.0025119 -0.016144 0.032034 0.018565 0.036892 -0.022669 0.034418 -0.007437 -0.00039808 -0.0023796 0.0060407 0.01063 0.0066321 0.0043087 -0.00053893 0.00068008 0.017025 0.021294 0.046095 -0.0081338 -0.0045169 -0.014937 -0.016521 0.022178 -0.0071624 0.001661
kerrotaan 0.013541 -0.054788 0.06802 -0.03109 0.12923 0.079999 -0.021719 -0.060336 0.035065 0.021176 -0.094589 0.059633 -0.0087407 0.082106 -0.080004 -0.021938 0.013823 0.016505 0.0046454 -0.026906 -0.05239 0.05341 -0.03165 -0.017425 -0.0022423 -0.0072384 0.044203 -0.033421 -0.069064 0.078692 -0.12315 0.031999 -0.015894 0.0034421 0.017087 0.019715 -0.053296 0.023867 -0.015003 0.026609 -0.047525 0.060023 0.029916 0.019647 0.0092724 -0.021995 -0.013255 -0.070014 0.012414 0.027536 -0.055577 0.065382 -0.093902 -0.017123 -0.087092 -0.017496 -0.042058 0.014223 -0.013549 0.02057 0.11613 0.018996 0.0592 0.069554 -0.055632 0.0050775 -0.041894 0.061101 0.026215 -0.032299 0.03283 -0.031869 0.070976 0.014961 0.011616 -0.049075 0.092302 0.051204 0.10669 -0.069985 0.098531 -0.021804 -0.0056271 -0.0067811 0.010651 0.028883 0.015076 0.014595 -0.0038624 0.0058781 0.045397 0.059158 0.13639 -0.025056 -0.010529 -0.042747 -0.046446 0.064944 -0.020262 0.003823 0.013541 -0.054788 0.06802 -0.03109 0.12923 0.079999 -0.021719 -0.060336 0.035065 0.021176 -0.094589 0.059633 -0.0087407 0.082106 -0.080004 -0.021938 0.013823 0.016505 0.0046454 -0.026906 -0.05239 0.05341 -0.03165 -0.017425 -0.0022423 -0.0072384 0.044203 -0.033421 -0.069064 0.078692 -0.12315 0.031999 -0.015894 0.0034421 0.017087 0.019715 -0.053296 0.023867 -0.015003 0.026609 -0.047525 0.060023 0.029916 0.019647 0.0092724 -0.021995 -0.013255 -0.070014 0.012414 0.027536 -0.055577 0.065382 -0.093902 -0.017123 -0.087092 -0.017496 -0.042058 0.014223 -0.013549 0.02057 0.11613 0.018996 0.0592 0.069554 -0.055632 0.0050775 -0.041894 0.061101 0.026215 -0.032299 0.03283 -0.031869 0.070976 0.014961 0.011616 -0.049075 0.092302 0.051204 0.10669 -0.069985 0.098531 -0.021804 -0.0056271 -0.0067811 0.010651 0.028883 0.015076 0.014595 -0.0038624 0.0058781 0.045397 0.059158 0.13639 -0.025056 -0.010529 -0.042747 -0.046446 0.064944 -0.020262 0.003823
mitään 0.020625 -0.086627 0.10604 -0.047326 0.1997 0.1207 -0.033525 -0.092126 0.051577 0.033063 -0.14578 0.091421 -0.010823 0.12343 -0.11814 -0.033584 0.021973 0.021535 0.0098826 -0.040604 -0.082014 0.083333 -0.047882 -0.026663 -0.0047176 -0.0092041 0.067441 -0.051774 -0.10654 0.11963 -0.18555 0.045329 -0.02099 0.0064234 0.022203 0.029874 -0.079765 0.035878 -0.027751 0.041294 -0.074842 0.09792 0.045632 0.034378 0.017952 -0.032889 -0.018063 -0.10824 0.014778 0.041627 -0.083097 0.1025 -0.14409 -0.023723 -0.13503 -0.024055 -0.066284 0.019597 -0.020915 0.032845 0.17792 0.033511 0.089752 0.1054 -0.085049 0.0083412 -0.060924 0.095488 0.038217 -0.048086 0.048135 -0.04626 0.10943 0.024137 0.019196 -0.074907 0.13936 0.081552 0.16278 -0.10643 0.15132 -0.033652 -0.0077412 -0.0080106 0.018102 0.041975 0.025965 0.020136 -0.0056554 0.0089487 0.065043 0.086016 0.21054 -0.038354 -0.018276 -0.068322 -0.068551 0.097566 -0.030572 0.0043703 0.020625 -0.086627 0.10604 -0.047326 0.1997 0.1207 -0.033525 -0.092126 0.051577 0.033063 -0.14578 0.091421 -0.010823 0.12343 -0.11814 -0.033584 0.021973 0.021535 0.0098826 -0.040604 -0.082014 0.083333 -0.047882 -0.026663 -0.0047176 -0.0092041 0.067441 -0.051774 -0.10654 0.11963 -0.18555 0.045329 -0.02099 0.0064234 0.022203 0.029874 -0.079765 0.035878 -0.027751 0.041294 -0.074842 0.09792 0.045632 0.034378 0.017952 -0.032889 -0.018063 -0.10824 0.014778 0.041627 -0.083097 0.1025 -0.14409 -0.023723 -0.13503 -0.024055 -0.066284 0.019597 -0.020915 0.032845 0.17792 0.033511 0.089752 0.1054 -0.085049 0.0083412 -0.060924 0.095488 0.038217 -0.048086 0.048135 -0.04626 0.10943 0.024137 0.019196 -0.074907 0.13936 0.081552 0.16278 -0.10643 0.15132 -0.033652 -0.0077412 -0.0080106 0.018102 0.041975 0.025965 0.020136 -0.0056554 0.0089487 0.065043 0.086016 0.21054 -0.038354 -0.018276 -0.068322 -0.068551 0.097566 -0.030572 0.0043703
Äänikirja. 0.0087236 -0.030743 0.038295 -0.018279 0.070503 0.044174 -0.012899 -0.034562 0.01889 0.012729 -0.053359 0.035003 -0.0035439 0.045207 -0.044169 -0.012117 0.0072136 0.0094372 0.0027128 -0.014912 -0.031218 0.027822 -0.018193 -0.0092331 -0.0029673 -0.0039694 0.024242 -0.018693 -0.037342 0.04482 -0.068257 0.014945 -0.0085847 0.0025656 0.0068078 0.012212 -0.029665 0.013807 -0.008737 0.015526 -0.025515 0.033745 0.014308 0.012489 0.0063374 -0.011424 -0.0058699 -0.039231 0.0076609 0.015095 -0.029855 0.03583 -0.050206 -0.0089826 -0.048304 -0.009877 -0.024316 0.0080559 -0.0073942 0.011269 0.065985 0.0097957 0.030113 0.038363 -0.031632 0.0034017 -0.021539 0.035268 0.014676 -0.01858 0.018131 -0.016256 0.038626 0.0078493 0.0059973 -0.026396 0.050012 0.028631 0.057943 -0.039451 0.054949 -0.010794 -0.0047805 -0.0044634 0.00551 0.016156 0.0087025 0.0070153 -0.0024973 0.0026272 0.023807 0.033153 0.076701 -0.015903 -0.0052686 -0.025346 -0.02669 0.035723 -0.011193 0.002148 0.0087236 -0.030743 0.038295 -0.018279 0.070503 0.044174 -0.012899 -0.034562 0.01889 0.012729 -0.053359 0.035003 -0.0035439 0.045207 -0.044169 -0.012117 0.0072136 0.0094372 0.0027128 -0.014912 -0.031218 0.027822 -0.018193 -0.0092331 -0.0029673 -0.0039694 0.024242 -0.018693 -0.037342 0.04482 -0.068257 0.014945 -0.0085847 0.0025656 0.0068078 0.012212 -0.029665 0.013807 -0.008737 0.015526 -0.025515 0.033745 0.014308 0.012489 0.0063374 -0.011424 -0.0058699 -0.039231 0.0076609 0.015095 -0.029855 0.03583 -0.050206 -0.0089826 -0.048304 -0.009877 -0.024316 0.0080559 -0.0073942 0.011269 0.065985 0.0097957 0.030113 0.038363 -0.031632 0.0034017 -0.021539 0.035268 0.014676 -0.01858 0.018131 -0.016256 0.038626 0.0078493 0.0059973 -0.026396 0.050012 0.028631 0.057943 -0.039451 0.054949 -0.010794 -0.0047805 -0.0044634 0.00551 0.016156 0.0087025 0.0070153 -0.0024973 0.0026272 0.023807 0.033153 0.076701 -0.015903 -0.0052686 -0.025346 -0.02669 0.035723 -0.011193 0.002148
Turun 0.007907 -0.022576 0.027149 -0.01187 0.052291 0.032664 -0.0081026 -0.02359 0.010294 0.011749 -0.035614 0.022753 -0.0049948 0.030824 -0.030347 -0.0099684 0.0055309 0.005083 0.001646 -0.010298 -0.021412 0.022111 -0.0095346 -0.0064831 1.9724e-05 -0.0020621 0.017859 -0.014142 -0.023905 0.033182 -0.046572 0.0095159 -0.0069566 0.0015951 0.0034656 0.0056217 -0.019448 0.0063798 -0.0054189 0.0082897 -0.01877 0.022705 0.012138 0.0081034 0.0036908 -0.010405 -0.004495 -0.026554 0.0037489 0.012278 -0.022545 0.025131 -0.035248 -0.0036129 -0.034753 -0.0064694 -0.016422 0.0044834 -0.0033033 0.0073066 0.048216 0.0042809 0.022074 0.026289 -0.01912 0.00083228 -0.017908 0.028049 0.010823 -0.013634 0.011868 -0.013545 0.026613 0.0073981 0.007385 -0.01843 0.035592 0.018077 0.042319 -0.02664 0.037092 -0.0093803 3.7069e-06 -0.00089054 0.0054549 0.010705 0.0065291 0.0071597 -0.0012347 -5.0333e-05 0.014331 0.02406 0.052997 -0.0072832 -0.0041276 -0.016402 -0.016838 0.025455 -0.0068018 0.00026929 0.007907 -0.022576 0.027149 -0.01187 0.052291 0.032664 -0.0081026 -0.02359 0.010294 0.011749 -0.035614 0.022753 -0.0049948 0.030824 -0.030347 -0.0099684 0.0055309 0.005083 0.001646 -0.010298 -0.021412 0.022111 -0.0095346 -0.0064831 1.9724e-05 -0.0020621 0.017859 -0.014142 -0.023905 0.033182 -0.046572 0.0095159 -0.0069566 0.0015951 0.0034656 0.0056217 -0.019448 0.0063798 -0.0054189 0.0082897 -0.01877 0.022705 0.012138 0.0081034 0.0036908 -0.010405 -0.004495 -0.026554 0.0037489 0.012278 -0.022545 0.025131 -0.035248 -0.0036129 -0.034753 -0.0064694 -0.016422 0.0044834 -0.0033033 0.0073066 0.048216 0.0042809 0.022074 0.026289 -0.01912 0.00083228 -0.017908 0.028049 0.010823 -0.013634 0.011868 -0.013545 0.026613 0.0073981 0.007385 -0.01843 0.035592 0.018077 0.042319 -0.02664 0.037092 -0.0093803 3.7069e-06 -0.00089054 0.0054549 0.010705 0.0065291 0.0071597 -0.0012347 -5.0333e-05 0.014331 0.02406 0.052997 -0.0072832 -0.0041276 -0.016402 -0.016838 0.025455 -0.0068018 0.00026929
Helsingin 0.011867 -0.049265 0.063568 -0.026149 0.11845 0.074367 -0.020755 -0.055678 0.030339 0.021946 -0.084199 0.054646 -0.0063631 0.074655 -0.069918 -0.020471 0.01171 0.014739 0.0052249 -0.022749 -0.047723 0.049295 -0.028205 -0.015735 -0.001068 -0.0062019 0.038861 -0.031578 -0.062615 0.070465 -0.10965 0.026736 -0.014431 0.0028038 0.012647 0.016731 -0.048438 0.02349 -0.014405 0.023802 -0.044216 0.056668 0.02706 0.019818 0.0098034 -0.020628 -0.010844 -0.062278 0.010249 0.02489 -0.04744 0.058128 -0.083369 -0.012511 -0.079539 -0.015383 -0.040669 0.012842 -0.0095954 0.01803 0.10533 0.017941 0.052474 0.060046 -0.050812 0.0049502 -0.035437 0.057619 0.023514 -0.029301 0.027101 -0.028491 0.062286 0.013543 0.0098986 -0.041512 0.081373 0.046781 0.094538 -0.062282 0.091258 -0.019145 -0.0071459 -0.0044453 0.0089357 0.026077 0.0159 0.012988 -0.0034371 0.0038481 0.040066 0.050703 0.12254 -0.020605 -0.0089956 -0.039064 -0.04039 0.057111 -0.017809 0.0016167 0.011867 -0.049265 0.063568 -0.026149 0.11845 0.074367 -0.020755 -0.055678 0.030339 0.021946 -0.084199 0.054646 -0.0063631 0.074655 -0.069918 -0.020471 0.01171 0.014739 0.0052249 -0.022749 -0.047723 0.049295 -0.028205 -0.015735 -0.001068 -0.0062019 0.038861 -0.031578 -0.062615 0.070465 -0.10965 0.026736 -0.014431 0.0028038 0.012647 0.016731 -0.048438 0.02349 -0.014405 0.023802 -0.044216 0.056668 0.02706 0.019818 0.0098034 -0.020628 -0.010844 -0.062278 0.010249 0.02489 -0.04744 0.058128 -0.083369 -0.012511 -0.079539 -0.015383 -0.040669 0.012842 -0.0095954 0.01803 0.10533 0.017941 0.052474 0.060046 -0.050812 0.0049502 -0.035437 0.057619 0.023514 -0.029301 0.027101 -0.028491 0.062286 0.013543 0.0098986 -0.041512 0.081373 0.046781 0.094538 -0.062282 0.091258 -0.019145 -0.0071459 -0.0044453 0.0089357 0.026077 0.0159 0.012988 -0.0034371 0.0038481 0.040066 0.050703 0.12254 -0.020605 -0.0089956 -0.039064 -0.04039 0.057111 -0.017809 0.0016167
